772 200
transformers -0.12132456 0.20029983 -0.1107152 0.038723227 0.035267804 -0.12599346 -0.06779346 0.0018895206 -0.113051824 -0.11103735 -0.16185407 0.10190235 0.13598888 0.024641175 -0.037060935 0.1807242 -0.20558345 0.026040433 0.07826618 -0.0859586 0.04820149 0.008661524 0.0034667668 -0.15612926 0.06641188 -0.117721505 -0.077133335 0.054699253 0.082736924 -0.058672044 0.10290644 0.015869463 -0.11250956 -0.13022695 0.01731142 0.017901445 -0.1151481 -0.027283398 -0.11850726 -0.11524137 0.034770813 0.08906513 0.039857037 0.16084507 0.09289983 -0.033531323 0.10691511 -0.19320087 -0.0073551317 -0.074530356 -0.15210952 0.16795158 -0.053688142 0.04943723 -0.055626165 -0.05706288 0.26510227 0.012337731 -0.0070035774 -0.036292758 -0.027547615 0.15016697 0.04464806 0.065634385 0.06010263 0.060870405 0.21037506 0.04737346 -0.019611489 0.15256631 0.07888503 0.065610655 0.096059866 0.15885955 0.04171833 -0.026650956 0.07286532 -0.054422025 -0.017205512 0.073685706 -0.045125138 -0.058286715 -0.034770098 0.11343648 0.020194585 0.09600736 0.05426302 0.08611108 0.031782594 0.09670002 0.03286199 0.09030448 0.08672315 -0.1656545 0.12089926 -0.104353964 0.07284483 -0.07852414 0.038406823 0.0062753954 0.18466243 0.023704799 -0.012235654 0.021482727 -0.068551295 -0.106463134 -0.05888431 0.06140812 -0.026161565 0.086073406 0.15926793 0.08650064 -0.015672859 0.07843213 -0.117346495 0.029400043 -0.08013165 0.070306644 0.0459864 0.06374233 -0.096633084 -0.021240506 0.021976389 0.097979315 -0.034022212 0.046483267 -0.14367238 -0.0056766807 -0.10694002 -0.011468306 0.003233696 -0.008357881 0.08302152 -0.13870497 0.0077717793 0.036312982 0.15740953 -0.015546069 0.11929347 -0.050546665 0.12720917 0.09060001 0.13426214 0.05775584 0.099088036 -0.112763464 -0.06328288 0.022536095 0.046931427 0.03407158 0.10453249 -0.09736522 0.089521155 0.061298434 0.1230363 0.08045715 -0.07711841 0.02592034 -0.086661495 0.2173236 0.12751162 0.09427065 -0.15843296 0.04124803 0.18029143 -0.17127806 -0.10427702 0.112963535 0.039091628 0.077259004 0.010347128 -0.019451855 0.050601225 -0.14432535 -0.16178441 0.08444586 -0.14222406 0.0691431 0.27237058 -0.040484566 -0.04152521 -0.053198334 0.24423352 -0.015708022 0.124418505 -0.07539451 -0.057051443 0.056565076 0.03725083 0.1558997 -0.17088158 0.0033515568 -0.10079154 -0.17272122 0.10010943 -0.075646885 0.1900183 0.05661328 0.054162007 -0.17655271
segmentation 0.11355445 -0.1516437 0.061683923 -0.06813671 -0.09031228 0.018209163 -0.030185072 -0.08741461 -0.094112076 -0.10322028 0.036857653 -0.25127664 0.06438821 -0.028008953 0.080561556 -0.0054612006 0.11816679 0.07502204 -0.037386566 -0.086437926 0.05396585 -0.112905085 0.032012817 0.19498925 -0.06598388 0.028888537 0.25904942 -0.069671266 -0.089711756 -0.007537571 0.029799553 -0.041650116 0.17856067 0.014584391 -0.023624986 -0.006500685 0.12130549 -0.0049142935 -0.17783764 0.26149043 -0.05007171 -0.3258789 0.010342716 -0.22014806 -0.12749927 -0.014547253 0.03152275 0.1951073 0.19995047 -0.026494691 0.09656654 -0.058640838 -0.04853136 0.0036430375 -0.1273917 0.07489459 -0.13099869 -0.07660248 -0.054375064 -0.07581805 0.0064945593 -0.037661407 0.10688824 -0.09379837 -0.08922275 0.086488925 -0.16491443 -0.19082394 -0.0603094 -0.1425601 -0.03906879 0.1346045 0.09716363 -0.21767911 -0.14994375 0.004428515 -0.12308946 -0.051647514 -0.014140313 0.07893804 0.07286912 0.033443242 -0.16500716 -0.26679093 0.1320431 -0.06604562 -0.03374525 -0.31665313 0.10857532 0.054025967 0.058416106 0.09267692 -0.20774741 0.04527982 -0.2708237 0.10060163 0.020034075 -0.027876938 0.20918499 -0.0023186116 -0.15812346 -0.08869494 -0.059881713 -0.02433143 0.16491427 -0.072720006 0.06843619 -0.010166686 -0.116890945 -0.13346374 -0.09328902 0.076788284 -0.06219921 -0.09980219 -0.117755085 0.051842827 -0.12093082 -0.053717602 0.00414692 0.05760848 0.22006463 -0.008110859 0.06558151 -0.08164449 -0.15398557 -0.1277393 0.25667796 0.20150006 0.14442655 0.124777675 0.12919986 -0.02582342 0.04737191 0.15111874 -0.015564547 -0.0935702 0.07239707 0.12674497 0.05660747 -0.041309193 -0.10158455 -0.123359844 0.17184573 -0.12893851 -0.0446614 -0.029192515 0.11891089 -0.16287474 -0.20476028 -0.017029611 0.0144132925 0.1704649 0.00852306 -0.13087513 0.025316466 -0.065172754 0.014981011 -0.07444893 0.1437799 -0.09082748 -0.051356204 -0.01823349 -0.07375727 0.0737882 -0.00018628663 0.028146658 -0.09110539 0.13024513 0.055849724 -0.058847684 -0.15198126 0.18811044 0.06595835 -0.17765766 0.18183273 0.10075716 0.026736822 0.13601457 -0.08463023 0.0920298 0.016722552 0.15590115 -0.020912845 -0.009040161 -0.100218676 0.1939737 -0.14488918 0.05096166 0.04009966 0.16784331 0.03920516 0.3191654 -0.07511893 0.15802725 -0.1239923 -0.15714325 -0.1990062 -0.14983124 -0.038342666 0.106097504
semantic -0.04303739 -0.24555047 0.061687667 -0.12340027 0.11358631 0.021268118 0.06902876 0.0037277783 -0.12886532 -0.058322348 0.14189725 -0.11413352 -0.07339802 -0.10393202 -0.035286877 -0.073403165 -0.0979712 0.055571456 -0.00088950456 0.04999505 0.09136407 -0.00803665 -0.067806624 0.13279152 -0.07591632 -0.01976465 0.12889734 -0.05730338 0.01584301 0.043914754 0.012626276 -0.11042619 0.2262518 0.12347824 -0.096404836 0.07722547 0.05394639 -0.047358584 -0.0015108224 0.12372894 0.22370237 -0.09558438 -0.083397225 -0.12861727 -0.16715364 -0.08355018 -0.04139083 0.06882423 0.15904763 0.005250381 0.008064815 -0.23255326 0.069478765 -0.0051544663 -0.17657077 0.0077616535 -0.24674085 0.01535508 -0.08848051 -0.044436827 -0.1137604 -0.099327825 -0.0094220415 0.057788532 -0.27147505 -0.00046173343 -0.0019445976 -0.069353946 -0.067513786 -0.13561988 -0.24770717 -0.01948486 0.122221366 -0.1727424 -0.05779805 0.0442644 -0.14608407 0.04139679 -0.012692869 0.16064166 -0.115947835 0.11698353 -0.17045581 -0.19650993 0.21721457 -0.06263965 -0.083970636 -0.041434206 0.12572731 0.054045014 -0.0071856976 0.17743163 -0.13414405 -0.061088562 -0.23179194 0.02967832 -0.019931586 0.108041435 0.002253864 0.027508419 -0.14811757 -0.11651313 -0.084563464 -0.080433875 0.025754152 0.060243804 -0.044125356 0.032363925 -0.0091407765 -0.10844202 -0.23286542 0.00036705332 -0.0859986 -0.025705425 -0.07071103 -0.06819226 -0.15415493 -0.059623595 0.05405128 -0.038249798 0.15622649 -0.0075980476 -0.00086110434 -0.11258374 0.079859026 -0.17253773 0.222195 0.1183934 0.07071501 0.05679897 -0.08148211 -0.06762615 -0.07385722 0.058680426 0.16560103 0.004240428 0.056991924 0.033783045 -0.015489165 -0.14634916 -0.14164646 -0.03295139 -0.026073474 -0.19023108 -0.0068493076 -0.08401312 0.21452089 -0.07381397 -0.22447748 -0.08075376 0.104297034 -0.034259688 -0.13923553 0.065178685 0.12932777 -0.06777499 0.088756956 0.1462064 -0.12179267 -0.12633201 0.06713574 -0.14107522 0.1479671 0.096132085 -0.053832058 -0.0714203 -0.13840534 -0.002561904 0.14501531 -0.08336527 -0.14990118 -0.018500453 0.08354361 -0.06686154 0.3143023 -0.010062216 -0.0040362473 0.09225695 -0.21413493 0.12536316 -0.09059217 0.19752753 0.009819232 0.028362785 -0.14681233 0.036317647 -0.076448284 0.1194144 -0.107321225 0.16235624 -0.03342408 0.15276672 -0.0029310058 0.18135545 0.03370768 -0.007354699 -0.07586335 0.029200397 -0.05959103 0.11486479
language -0.047315586 0.17102516 0.04830061 0.031498734 -0.044812005 0.07071053 -0.044070046 -0.04767822 -0.13919295 -0.023227962 -0.14540985 0.20620875 0.18542135 -0.0063345754 0.13552265 -0.078233555 -0.03540918 0.013606402 0.22286919 0.03573911 0.09896989 0.036487147 0.06070055 -0.19616885 0.011415091 0.05562971 -0.21370068 -0.028085116 0.09435462 -0.07324989 0.07719329 -0.12262416 -0.10703309 -0.1543875 0.08163763 0.086305104 -0.18430892 -0.042627856 -0.042746652 -0.28479862 0.0077661285 0.09678455 -0.076487325 -0.011572304 -0.022391457 -0.09410134 0.20788647 -0.2594907 0.05923661 0.028764801 0.04800712 -0.01593652 0.027560392 0.0570223 0.29884094 0.012462211 -0.0007771351 -0.020784637 0.05342099 -0.046351902 -0.06374195 0.15778077 -0.056010343 -0.071146816 0.085532695 -0.07240039 0.2575172 -0.055419676 0.14854573 0.097852334 0.043193284 -0.13118206 -0.029211178 0.14906241 0.060862787 -0.1794662 0.15264493 0.08430469 -0.05270128 -0.15675455 -0.06641453 0.060943265 -0.043138906 0.09208394 -0.21941817 0.0028642965 0.2657835 0.028303552 -0.11764381 -0.07185778 -0.07506441 0.17371249 0.22426485 -0.18330918 0.25442463 -0.26203462 0.021448372 0.06167933 -0.1533004 0.058795482 0.09775701 -0.07521755 0.12904029 0.007670304 0.033019826 0.019002862 0.090261616 0.039967418 -0.10433212 -0.020413917 0.17768875 -0.09226076 -0.19717184 -0.07275042 0.1317086 0.043703772 0.053563442 0.1247987 -0.056136403 -0.006034958 -0.21496195 -0.1294176 0.029595185 -0.03280875 0.057059336 0.23941383 -0.12656891 -0.07574742 -0.03589298 -0.09981064 -0.118831106 -0.06515894 -0.021918472 -0.21276431 0.11457479 0.010033485 -0.058553077 -0.028766483 0.061097465 0.19088385 -0.15931706 -0.03789286 0.029726844 0.08441593 0.059145145 -0.14022091 0.05993805 0.15242514 0.111410394 -0.091298915 -0.13336657 0.0055379043 -0.07844361 0.14032602 -0.038042936 0.27196842 -0.1138451 -0.13155635 -0.09460982 0.26599276 0.03788736 0.10734919 -0.15515122 0.10992355 -0.058116984 -0.10215676 -0.1745923 -0.10761181 0.15172109 0.029757144 -0.060575888 -0.14777026 0.06334231 -0.15101142 -0.1470779 0.117184095 -0.11635668 -0.1455478 -0.059364 -0.0082706995 -0.11840132 0.027028237 0.14994669 0.06170191 0.18818012 -0.024840502 -0.08795384 0.026321718 -0.23424478 -0.045735873 0.19566579 -0.13203982 -0.114513144 -0.07399191 0.22959386 -0.045261413 0.07650187 -0.14942135 0.07468611 -0.23075704
word 0.25853068 0.073146805 0.024358978 -0.011684199 0.004957943 0.20404333 0.0066883718 0.013258389 0.16081093 0.07225027 0.13742317 -0.047495004 0.04831047 0.08294212 0.15870668 0.106357746 0.14945304 -0.050092254 0.32415113 0.024809113 -0.009566728 -0.13164417 0.07712078 -0.104566395 -0.11099757 -0.06902135 -0.26399672 0.110787086 -0.0122698005 -0.10338422 0.03187272 0.009625459 -0.06598252 -0.1015225 -0.098282516 0.04828267 -0.23682645 0.10162162 -0.052926555 -0.2261733 0.17529859 -0.16657397 -0.07837087 -0.21836999 0.17712198 0.03951066 0.0602608 -0.099476896 0.074082345 0.06620825 -0.0022300608 -0.014031868 0.16343984 0.17841974 0.0807867 -0.12354238 -0.14645912 0.02999186 -0.12093011 -0.10871547 -0.046190143 -0.11543983 0.044300433 0.07815697 -0.050365422 0.23347339 0.06534052 0.10436356 -0.0039310595 0.106223024 -0.12477892 -0.07558159 0.011202522 -0.08016199 0.21691054 -0.25258815 0.16279027 0.015266552 -0.31274998 -0.04049545 0.0040752403 -0.007901035 0.014201018 -0.017902011 -0.16993535 -0.100757904 0.20132722 -0.08000302 -0.18599455 -0.14037834 -0.048800234 0.08464873 0.23863778 0.114309184 -0.06115996 -0.12571704 -0.12909096 0.02550777 -0.055278502 -0.097796716 0.06564842 -0.061492182 -0.15006305 0.06454896 0.11203317 0.05352154 -0.14834419 -0.084300734 -0.01612932 -0.03848295 0.11648193 0.050026245 0.13826002 0.017888322 0.13757628 0.091863796 -0.04175899 -0.04846392 0.0047575226 -0.06364907 -0.18177855 -0.08223668 0.18425965 -0.019183848 -0.033116985 0.18659648 0.17928658 -0.09763164 0.13748741 -0.054547787 -0.13524237 -0.14117925 0.00698506 -0.29040122 0.14354445 -0.008521398 -0.19288796 0.071736924 -0.13032009 0.18112092 -0.062479414 -0.05451249 -0.08459389 0.034888867 0.024988815 -0.2012003 0.16911136 -0.11840748 -0.04869384 0.06038627 0.08418878 -0.07197203 -0.11230362 0.094635874 -0.05643194 0.26700386 0.04185861 0.07334368 -0.09654999 -0.0062448042 -0.02307078 0.08088741 0.16210777 0.1066815 -0.20675893 0.12084145 0.14258578 -0.012391723 0.076913446 -0.09726488 -0.20137596 0.013327148 0.024532385 0.12193282 0.06136394 -0.14010015 -0.21637926 -0.1132258 -0.17101973 -0.10423373 0.12557797 -0.107540496 -0.078329004 0.068019986 0.05380728 -0.027052293 0.057652295 -0.0021420529 0.12999688 -0.07276962 0.119930536 0.064244464 0.11595578 0.13762572 0.10744372 -0.043317232 -0.08147434 -0.015594339 0.05198344 0.121147394
embedding 0.09752315 0.056609035 0.10224441 0.13201845 -0.09169208 0.04556464 -0.05465795 -0.04057621 0.08590295 0.010344899 0.08298286 -0.08457804 -0.064295284 0.00499966 0.2372949 0.018729892 0.24866413 0.0069318465 0.18618979 0.03522074 0.055057634 -0.116289966 0.0373346 0.009636767 -0.00507045 -0.15804042 -0.03855979 0.1080932 0.02015269 -0.07781092 0.10426195 0.1251288 -0.025216239 -0.06280122 -0.047123443 0.011450881 -0.17687471 -0.020615045 -0.022365915 -0.23749427 0.1902945 -0.1596301 -0.08742528 -0.062367365 0.09148713 0.10366884 0.06915801 -0.1456387 0.11756277 -0.071272664 0.04319269 0.020962527 0.083170064 0.08156273 0.1476483 0.061927672 -0.15043083 0.03559806 -0.1546749 0.03554763 -0.05832649 -0.069503486 0.11279435 -0.0411357 -0.1447897 0.21125306 0.1149571 -0.04527428 0.042143688 0.024384331 -0.008925568 -0.1619093 -0.06509125 0.04066806 0.17860259 -0.203343 0.1362709 0.06965804 -0.1635817 0.029706115 0.052356005 0.024371345 -0.07248101 -0.113433115 -0.15568651 -0.083137065 0.15656702 -0.013728691 -0.09320855 -0.13627891 0.03420204 0.05849174 0.1894244 0.17172411 -0.05766719 -0.13557643 -0.002005539 0.04277123 -0.019732907 -0.022243453 0.013183834 -0.027610812 -0.028329961 0.08761742 0.05711768 -0.058199987 -0.10568056 -0.04735915 0.07061916 0.059373118 0.22798017 0.04543181 0.1620698 0.047061257 0.060925145 0.027165832 -0.10168301 -0.056259364 0.07432853 0.041705467 -0.18873253 -0.08496297 0.035273593 0.09638603 -0.03121345 0.22411916 0.09881036 0.020839494 0.037997875 0.049263828 -0.16531545 0.028549606 0.030020969 -0.19704475 0.06872443 0.0077087497 -0.12154464 0.01755902 -0.08345122 0.14014047 -0.14685294 -0.048570115 0.019850316 0.087603584 0.075575024 -0.08151064 0.073295206 -0.07335005 -0.032232456 -0.0069604735 -0.0050937496 -0.10152628 -0.06988119 0.0782701 -0.08524442 0.14795388 -0.01797561 -0.17722382 0.028338138 0.05730434 -0.062743574 -0.0038380348 0.13713649 0.009751677 -0.13313918 0.07040422 0.064131774 -0.10109187 0.084249236 -0.037164807 -0.23791434 -0.018130574 0.046209823 -0.028258625 -0.0015943005 -0.000609573 -0.1639222 -0.013661241 -0.12994489 0.04084083 0.19303286 0.0981853 -0.12676291 0.029688846 0.15300399 -0.19459976 0.01917598 0.09245933 0.06414869 -0.036443852 0.119007386 0.046475712 0.050356325 0.10763136 0.10526857 0.059569083 -0.062646866 -0.001979293 0.025694992 0.11330249
image 0.0068640285 -0.10333801 0.12328192 -0.031965464 -0.11973283 -0.08520721 -0.19999728 0.012782329 -0.10777808 0.055050194 -0.044908166 0.02785821 0.0154468715 0.038440168 -0.013386535 0.05682692 0.0047917888 -0.10261035 -0.15882063 0.016727395 0.11165725 -0.15406848 0.06348908 0.20893598 0.085151844 0.1355592 0.13009854 0.07001591 0.006364832 0.14566825 -0.081920765 -0.18696415 -0.021261184 0.016855575 -0.019179104 0.0047210115 -0.045414817 -0.15477374 0.09946525 0.12326483 0.07517558 -0.05045092 0.035829287 -0.030069916 -0.08625899 -0.15244508 -0.020259954 0.16503209 0.05745432 0.068074785 -0.21938044 -0.0028463816 -0.18320826 0.036546778 -0.027626758 -0.04342932 -0.042942956 0.095821224 -0.055402428 -0.028277854 -0.011748187 0.031852797 0.076971315 0.039955735 -0.09057267 -0.0021169358 0.06646155 -0.004358489 -0.120947875 -0.059074037 -0.13049866 -0.00043180096 -0.06154663 -0.16493557 -0.17568573 0.1451353 -0.12094067 0.06674328 0.102216065 -0.051134393 0.083200224 -0.06306585 0.010115882 -0.01957116 0.0735459 -0.05575536 0.017026363 -0.04936033 -0.016807346 -0.023049224 -0.049136963 -0.055272803 -0.035490967 0.12025358 -0.07104125 0.23004675 0.13489078 -0.009366172 0.10193211 0.013833274 -0.09474203 0.021389343 -0.09779604 -0.10619508 0.09303835 0.010584596 0.008239249 -0.050586227 -0.0037604077 -0.040428713 -0.1459928 -0.0037133473 -0.005291206 -0.05600869 0.013059012 0.028200231 -0.0988281 -0.004416082 0.064981624 0.06422601 0.09769221 0.0043365466 0.015046375 -0.03718953 0.0998723 -0.0333949 -0.04036787 -0.08729914 0.06249924 -0.11490142 -0.09788517 -0.021960292 -0.034884546 0.12630044 -0.08868597 -0.010218048 0.05389581 0.033548824 -0.05305862 0.04405088 0.038770434 -0.16349052 -0.0035861954 0.048177496 -0.0060537374 -0.07906625 -0.004771162 -0.060582757 -0.07559034 0.018159254 0.10135582 0.00097235286 0.036180254 -0.029621558 -0.023035588 -0.0021860478 0.04891407 0.056953743 -0.06608222 -0.0978159 -0.101512894 0.06694592 -0.0053846636 0.10929638 -0.08940444 -0.07679659 0.014734026 0.08190409 -0.027461965 -0.10692692 0.15193258 0.1491204 0.055004254 -0.09377531 0.09911464 0.07609241 0.00047343806 0.13692465 0.044417717 0.00042118807 -0.054383248 0.17245312 -0.054308638 -0.1305448 -0.10287323 0.03156273 -0.03720273 0.070436634 0.12656906 0.0033218083 -0.009925023 -0.104199514 -0.077765405 0.025116982 -0.1430139 0.06553239 -0.06223607 0.07220383 -0.13701995 -0.09901443
classification -0.05634319 0.05949403 0.0036242008 -0.08674081 0.056395423 -0.112119794 -0.16491096 0.07311626 -0.08026191 0.040311478 0.06056127 0.1164793 -0.038741797 -0.09853306 -0.10461505 0.053614743 0.11755303 -0.044944096 -0.072209015 -0.050440263 -0.073246315 -0.081422694 0.07644335 0.08245765 0.12731746 0.20788726 0.045095418 0.1463343 0.044045016 0.13320741 0.0149643235 -0.014494921 0.0858685 0.02974741 0.07837008 -0.08479553 0.09126873 -0.08455801 -0.0675159 0.07768166 -0.02894332 0.18182118 -0.06720782 -0.1496553 -0.02993491 -0.0007707258 -0.070809074 0.103995375 0.08510905 -0.08808863 -0.0037828598 -0.055326954 0.12693645 0.027599081 0.018070215 0.016181951 0.08735059 -0.058742657 -0.10193973 0.1417853 0.016271763 -0.09894101 0.115498796 0.08553489 0.039327394 -0.11843395 -0.025450334 -0.026375964 -0.033403154 -0.00189779 0.06087252 -0.062554255 -0.0058022286 -0.05800235 -0.19196823 0.06744411 -0.02807164 0.10680515 0.07618714 0.13146673 0.05155155 0.021954771 0.09252821 -0.046154626 0.030604932 0.17900607 0.026192704 -0.04074408 -0.0016457575 0.016712613 0.049839474 0.018990822 -0.07709995 0.030908292 -0.01828957 0.12213561 0.08567649 0.020762768 0.05257586 -0.03273322 -0.05641451 -0.054811478 -0.14357424 0.019351168 0.01065732 -0.065181315 -0.012051557 -0.039074797 0.023074038 -0.12026324 -0.07647351 0.15281679 0.05312357 -0.028974235 -0.037666433 0.0031812247 -0.023502592 -0.079046234 -0.0037426073 -0.068516284 0.1328082 0.017063068 -0.103937104 -0.026914774 0.15590002 0.027478117 -0.06166382 -0.063463494 0.0071880673 0.049008474 -0.010355421 -0.024145853 -0.054826718 0.02960555 -0.14055595 0.014789001 -0.0815427 -0.03923833 0.004924371 0.057315554 0.009373024 -0.14398707 0.13239658 -0.13797885 0.070413984 0.014336572 0.016273482 0.023009816 0.07374246 0.05325688 0.08619283 0.1358907 0.019350512 -0.0171422 0.009620127 -0.05198279 0.12499494 0.103037275 -0.03270911 0.01852627 -0.19213766 0.0027088535 0.037435908 -0.15610686 0.111484796 0.052848235 -0.0025825882 0.052008282 0.07058967 -0.056351323 -0.033453584 -0.08281625 0.082863174 -0.043447793 0.01135663 -0.012404537 -0.03533862 0.0867961 -0.015724558 0.07322897 0.019740568 -0.004304784 0.04895183 0.06771868 -0.0917582 0.050825402 0.046048738 0.11247271 -0.058412064 -0.10645329 0.009724061 0.020407287 0.033788953 -0.1152733 -0.035455417 -0.041857295 -0.0138944 0.015963888 0.004457257 -0.017857572
neural -0.1642159 -0.012411862 0.040802963 0.013901377 -0.08483529 0.012048678 -0.1165773 -0.036088962 0.037851434 0.050085705 -0.09724113 0.16104467 -0.09068442 0.14432633 0.05724213 0.07732317 -0.07626793 -0.14965461 0.06792569 0.075352155 -0.08963022 -0.08188311 -0.07146626 -0.09632089 -0.010815452 -0.12188825 -0.12069622 -0.031108415 -0.12513125 -0.17174982 0.08316164 -0.0796305 -0.05862548 -0.052875515 0.07957034 -9.274273e-05 -0.11656408 0.058958665 0.019669948 -0.124740124 0.029803654 -0.022717629 0.0626113 0.048247777 0.007060819 -0.10519997 -0.11327306 -0.10461834 -0.10249717 0.0042705033 -0.062598705 0.025495484 -0.06590184 -0.021982089 -0.029756254 0.11315828 0.012370929 -0.061506204 0.14768124 0.0312705 0.07552951 0.011845429 0.11149195 0.058469843 0.024217956 -0.07797725 0.118074305 0.008916421 0.09816076 0.010348188 -0.025670959 0.17548352 -0.03468193 -0.031550705 0.044184875 0.06495375 0.11212972 0.03502337 -0.052949578 -0.061081935 -0.011843062 0.033918325 -0.12508962 -0.074215844 0.00042053312 0.13862638 0.02783046 0.1685165 -0.014890892 0.0912515 0.05317931 0.013061475 0.09038271 -0.036855813 0.014899136 -0.03258165 0.027850507 -0.00024230301 0.003800041 -0.0066219727 0.094986856 -0.06292999 0.026704961 0.13112801 0.16595048 0.0036211456 0.14786756 -0.04989245 0.044795223 0.035462204 -0.036757313 0.060532104 0.07807572 -0.03393241 -0.18150744 0.012485209 -0.011790515 0.06445998 -0.063463494 0.12213439 0.006175554 0.05238921 -0.04973116 0.03485863 0.110017866 0.00793446 0.022165652 0.025717806 0.10452959 0.025480535 -0.08736478 0.016958041 0.03247446 -0.02198626 0.12060011 -0.04235286 -0.060399134 0.13944927 -0.026320161 0.048149474 0.040355403 -0.098162845 -0.18071623 -0.09124288 -0.01524313 -0.13548845 0.0114419265 0.122174874 -0.0875958 -0.034070507 -0.046774656 -0.12010041 -0.044974472 -0.058879275 0.03642297 0.0714862 -0.17926148 0.058463413 -0.07779804 0.12143011 0.055743236 0.2740985 0.1567688 0.049232543 -0.10132848 0.16922808 0.016935596 0.052626353 0.0680373 -0.034427647 0.0036947979 0.006514033 -0.053994205 0.017282203 0.0047219093 0.06554 0.055474337 -0.001774149 0.08635139 0.004843236 -0.07288149 -0.02007582 0.09446594 -0.026009036 -0.1000532 -0.07709924 -0.050793048 -0.21089955 0.123206005 -0.022909397 0.118592076 -0.03594931 0.071414754 -0.13267608 0.093540065 0.012139784 -0.05542568 -0.10497524 -0.03433638 0.014364949
bert 0.093842305 0.18514761 -0.10272313 0.013002651 0.06262312 0.080087826 -0.017316757 -0.0785905 0.12060573 -0.01932292 -0.10494126 0.06718785 0.0769413 0.017696332 0.2852331 0.009081529 -0.19582699 -0.014997976 0.11410058 -0.13765359 -0.020709787 0.11448042 0.051281095 -0.18706386 -0.021320682 0.035189006 -0.26136616 0.00980907 0.05179862 -0.07425201 0.046811443 0.15347596 -0.16215801 -0.18347242 0.11663659 -0.011689728 -0.11256067 -0.058952563 0.010180498 -0.11895401 -0.050239287 0.15492426 0.032841988 0.011717217 -0.0735341 -0.10264462 0.1558487 -0.20073463 -0.08581955 0.021285912 0.092563316 0.114976734 -0.07467936 -0.18753971 0.1397098 -0.02759686 -0.019498352 -0.039246984 0.09754025 -0.059398547 -0.047584444 0.011686476 -0.065264754 0.031776186 0.115561105 -0.007127182 0.1355529 0.019142674 0.08088984 0.07419521 -0.021814274 -0.087370254 -0.06547777 0.17903082 -0.013965506 -0.24286999 0.20815316 -0.080938295 -0.25250384 0.06777913 0.15864554 -0.106063746 0.06429325 0.117738076 -0.14993489 -0.08128269 0.1979698 -0.08487202 -0.100840874 0.031349897 -0.047477458 0.12115988 0.22053197 -0.12582535 0.12337225 -0.24402203 0.06031297 0.022001816 -0.041989695 0.06870834 0.15129183 -0.11717209 0.12382219 0.057364013 -0.07036571 -0.15260836 -0.10706566 0.19393826 0.034646843 0.07812114 0.109340295 -0.057602912 -0.0025453398 -0.025185794 -0.096875966 -0.09885609 0.034063753 -0.023555368 0.025341071 -0.018255724 -0.21624081 0.070348404 -0.04954151 -0.044157766 0.06839268 -0.021902418 -0.025972564 0.059187144 -0.144394 0.033585668 -0.17752033 0.10145008 -0.0568998 -0.16500749 0.025723144 0.092564754 -0.08430182 0.0026044587 0.17672701 0.11069752 0.07171531 -0.045356706 -0.04470531 -0.06772065 -0.06673775 0.061431944 -0.006371443 -0.033839818 0.14569087 -0.06492367 -0.007187183 0.045029156 0.026483284 -0.023560092 0.08019798 0.099239156 -0.03588142 0.008384588 -0.2189094 0.09176574 -0.025649106 -0.044673778 -0.067139566 0.02381085 0.04736856 -0.0009927214 -0.056961685 -0.059268657 0.012477025 -0.047475588 -0.0035317831 0.009585719 -0.0639274 -0.1453937 -0.14487718 -0.046719335 -0.088861234 -0.05975282 -0.043507595 -0.1314704 -0.15015818 -0.10124122 0.08535921 -0.009307128 0.17182957 -0.19069776 -0.114014015 -0.0069531184 -0.0967342 -0.16252679 -0.061837584 -0.17141801 -0.009874165 -0.07176208 0.16018236 0.032692634 0.040603116 -0.06874245 0.1043516 -0.15378883
natural 0.1837722 0.15651415 0.066581525 -0.059563342 -0.049177933 0.09773594 0.07662612 -0.05135814 -0.022857651 -0.13252117 0.0025846083 0.1838558 0.08310245 0.09236221 0.16516994 -0.12481379 0.027664613 0.094914146 0.23660643 0.047325045 0.11364746 0.067598104 0.013983494 -0.21450622 0.11995771 0.015653614 -0.24529897 0.051108535 0.09316516 -0.052914884 0.06912595 0.14581652 -0.18190846 -0.037428737 0.09120596 0.027205888 -0.11659819 -0.061254393 -0.011790425 -0.1271477 0.15165621 0.16838133 -0.06332016 -0.043666314 -0.101653084 -0.07991152 -0.025991058 -0.17335904 0.018304598 0.07092965 -0.059827205 -0.0036306498 -0.080944955 -0.10108105 0.16057694 -0.14892602 0.009441057 0.047702692 0.13528627 -0.022886759 0.0482124 0.094249316 -0.030769153 -0.11628365 -0.022014573 0.009880228 0.19141535 -0.06694337 -0.014588953 0.07306835 0.08527059 -0.0056624133 -0.030963095 0.18161632 -0.062316656 -0.053945743 0.1839398 0.039967597 -0.03340561 0.004514229 0.046717722 0.038365778 -0.08862945 0.029442098 0.0054567284 0.016649393 0.23636387 0.144631 0.068003856 -0.041644905 0.010556296 0.12873447 0.2588247 -0.13468987 0.16518529 -0.2520815 0.059513792 0.12401058 -0.055988207 0.06925902 0.061689842 -0.09075671 -0.023096792 0.004601728 -0.012079915 -0.03160357 -0.09012878 0.055040613 0.05119924 0.032382004 0.1846379 0.10934395 -0.17046742 -0.0056027016 0.026570266 -0.050541434 0.006403861 0.037927665 -0.06799524 0.01524228 -0.25961637 -0.044185977 0.14059773 0.011112506 0.13972989 0.03952415 -0.10740625 -0.07833391 -0.017641325 -0.18738632 -0.2124829 -0.0057576317 -0.07168279 -0.12486814 -0.024182206 0.06648672 -0.022006692 0.07084375 0.0077389274 0.15113926 -0.03659009 -0.008625683 0.052774273 0.0018975649 0.04924187 -0.2244815 0.011714762 0.03788808 0.08825368 0.016148316 -0.09134077 -0.11773878 -0.020826595 0.10037793 0.09046736 0.12953378 0.078188255 -0.22419381 -0.16463748 0.17244929 0.00021148974 0.070814855 -0.012726165 -0.1004295 0.05565162 0.024972713 -0.14738804 0.15322137 0.026314167 -0.02401487 -0.06422923 0.09948429 -0.021071162 -0.12977846 -0.2142089 0.0632332 -0.095184594 -0.0025589373 -0.057510156 -0.122040786 -0.0111918915 -0.17503017 0.12431741 -0.059190735 0.082943566 -0.016939972 0.044917196 -0.0768571 0.012070095 0.0022531939 0.038287986 -0.24267279 -0.054623336 0.045323417 0.14229746 0.055039868 0.121348664 -0.058477513 -0.02821638 -0.1057533
embeddings 0.145855 0.09118769 -0.035789106 0.11358502 0.09123606 0.15118355 0.0725079 -0.03579207 -0.06261211 -0.048326388 0.00013685971 0.030387169 0.12297634 0.14985085 0.27490887 0.13913423 0.17200935 0.059692275 0.10611883 -0.09599563 0.07239326 -0.060285866 0.036163338 -0.065192275 -0.0030145296 0.108024694 -0.049377594 -0.0880358 0.053610418 -0.11262956 0.11204176 -0.0167431 0.017844979 -0.15196553 -0.07433428 0.084721655 -0.08790309 0.118747294 -0.0968448 -0.12882504 0.081943534 -0.08063323 -0.03376051 0.034344196 0.055635393 -0.07812665 0.12390676 -0.0034987922 0.044740494 -0.118834734 0.12738684 -0.043504685 -0.010988686 -0.029277366 0.04560873 -0.020183016 -0.058447488 0.030746594 -0.0969828 -0.00030987547 0.06405128 -0.13957296 -0.015437629 -0.0045038415 -0.0019873278 0.21085614 0.05698649 0.09303971 0.116834626 0.036402363 0.018900614 -0.076459505 -0.07849898 -0.027347935 0.11323728 -0.13263816 0.006360614 0.04812708 -0.16825885 0.0323521 -0.06309143 0.11401916 0.022193963 -0.018660223 -0.04524528 0.050333135 0.17037441 -0.031556133 -0.13704723 0.04723976 0.02420337 0.021560213 0.16824234 0.14101395 0.04073973 -0.101632155 0.10224069 0.15391313 0.10165838 -0.13787042 -0.017275115 0.12521961 -0.1416938 0.05270347 0.04305116 0.15588246 -0.0641533 -0.1450587 -0.058132023 -0.049829178 0.1504109 0.044056438 0.07352833 -0.08422293 0.10057212 -0.027693806 0.11604392 -0.02774808 0.069129646 0.045566227 -0.03197402 -0.06870122 0.11110911 0.0117045045 0.03954139 0.20777547 0.2413279 -0.06406319 0.030778518 -0.059255876 -0.17384034 0.017590519 0.0031696912 -0.26386756 -0.06005324 -0.11209657 0.032989558 -0.10709174 -0.12866591 0.122075565 -0.102266565 0.0013599162 0.015149747 0.06606514 0.06800407 -0.018444134 0.11944138 -0.17161554 -0.075084925 0.0657657 -0.062442034 -0.029650163 -0.15603262 0.04642652 -0.0706735 0.088994056 0.14206184 -0.23961145 0.08411658 -0.045092735 -0.028398363 -0.08362063 -0.014124604 0.0044861524 -0.014404725 0.07189896 -0.069599114 -0.094830334 0.0709813 0.00071359763 -0.0018830277 -0.06274187 -0.07971578 0.096496955 0.09340614 0.027219227 0.041664034 -0.0050002453 -0.24713399 0.046671383 -0.056847654 -0.108123906 -0.11679203 -0.102749735 -0.08732071 0.08396091 -0.006851718 -0.046045706 0.13327104 -0.0062822117 0.07023169 0.091084994 -0.06497103 0.12538716 0.020504553 -0.07473467 0.0028899754 0.019192716 0.12685598 0.149
network -0.05142872 -0.07639892 0.08349345 0.06615368 0.0028809956 0.057679027 -0.09358054 -0.1372226 -0.10751743 0.11436968 0.07178757 -0.043704193 -0.039942734 -0.008204779 0.0101473415 0.09401636 0.14303273 -0.17873831 0.0004675052 0.057466157 0.014701648 -0.1785842 0.03407128 -0.01411254 0.051834043 0.019350026 0.04156014 -0.041741293 -0.04011336 -0.0052345665 0.04761054 0.052159578 -0.0772305 -0.098213665 -0.13750903 -0.03415649 -0.011470885 0.10673512 -0.18327092 -0.010729295 0.040479016 -0.14415517 -0.09720231 -0.086561866 0.024627239 0.08076426 -0.027510244 0.10611648 -0.03406365 0.059019413 -0.07605929 -0.11408244 0.073176205 0.2522123 0.070325606 -0.025154201 -0.045870498 -0.062073544 -0.10249629 -0.024879513 -0.07772801 0.013162773 0.1212664 0.07598677 -0.10391555 0.0017078414 -0.061015896 0.0720999 -0.004949351 -0.054508135 0.1451571 0.05317763 -0.03122355 -0.09633414 0.06251704 -0.01199981 -0.08498599 0.036080383 -0.04784912 -0.0207063 0.066458486 0.040770948 0.07725288 0.004517252 -0.012247106 0.005419622 -0.06183455 -0.06532876 0.041285083 0.028547078 0.0130927805 -0.1324975 0.021749154 -0.007022216 -0.013782215 0.02335502 -0.13807927 -0.06309603 -0.14994073 0.07367721 0.098924786 0.055501435 -0.09870556 0.012996179 0.08958966 -0.017847361 0.07364372 -0.03952661 0.07938863 -0.032690484 -0.036752295 0.02894919 0.00085739925 0.0022559636 0.04180014 -0.0016636592 -0.1077827 0.08566911 0.18611665 0.1607828 0.00079936767 0.10388864 -0.010027757 0.031242546 -0.13326637 -0.103380956 0.04306077 0.087680906 0.11563584 -0.059589267 -0.029389812 -0.038272932 0.13789706 -0.012673379 0.020776734 -0.15212293 -0.17802568 -0.07004626 -0.08613734 0.049523428 0.18253607 -0.13163055 0.10790221 0.15995447 0.11681455 -0.061905626 0.19994375 -0.03613559 -0.018404692 -0.23086566 0.06928319 -0.005355527 -0.019078596 -0.0054797954 -0.09536915 -0.032423403 -0.056226622 0.089467406 -0.115499325 0.025683496 0.14957026 0.09946081 0.104028955 0.10042217 -0.107673824 0.047405217 -0.011710584 0.034616075 0.1340658 -0.115346596 -0.1124546 -0.07342393 0.025530376 0.045194417 0.08570027 -0.036679715 -0.115111195 0.13127635 -0.070131965 0.049946766 -0.15649956 -0.01658546 -0.050175667 -0.076886855 -0.19569726 -0.09486462 0.17315415 -0.09190932 0.2679449 0.07175793 -0.054559965 0.07622115 0.06715846 -0.014605028 -0.09713566 -0.11926747 0.03140975 -0.09490452 -0.10566049 -0.014913418
images -0.029530745 -0.17965269 0.04332435 -0.08808424 -0.036151115 -0.047871627 -0.10172535 -0.09481652 -0.041208595 0.02306828 0.037368726 -0.11350321 0.025113061 -0.03320239 0.032224067 -0.042241484 -0.054080393 -0.018439759 -0.10841256 0.097545356 -0.00968116 -0.07857235 0.03924472 0.06053232 -0.00016947906 0.02168891 0.1406809 -0.10296819 -0.04004078 0.021953844 -0.017978841 0.007809217 0.11789803 0.055089865 0.0095679015 0.01426636 0.078968786 -0.09982674 -0.050519075 0.06057922 0.003585138 -0.12229077 -0.06604536 -0.1443726 0.055173185 0.0771753 0.042139824 0.11946814 0.036843386 0.06658351 -0.061012994 -0.038715377 -0.100055955 -0.09212063 -0.15172814 0.02139966 -0.033445667 -0.11878683 0.013073974 -0.01232416 -0.04956971 0.004337284 0.036994006 -0.01280873 -0.11473924 -0.10467584 -0.06635016 -0.072124705 -0.07023955 0.0517708 -0.03352659 -0.05645357 0.10108104 -0.17914526 -0.06798398 -0.029248305 -0.047238953 0.05269951 -0.08700608 -0.07701322 0.04961634 0.080122426 -0.062030036 -0.11197912 0.07427516 -0.113671094 -0.03973047 -0.20665853 0.16130842 0.064750075 0.034955084 -0.11197976 -0.07418521 0.03407021 -0.15554899 0.11862346 -0.0697434 0.088722125 -0.037960254 -0.08005147 -0.08248058 0.029473715 -0.06512892 0.009048425 0.13566332 -0.052805398 0.038200103 0.014151332 0.022380129 0.02276 -0.12535822 0.046091594 -0.07663538 -0.022282613 -0.067414604 0.010075087 -0.12533352 -0.1091288 0.005247825 0.058770392 0.07490437 -0.09268854 -0.106456384 -0.017360022 0.034664035 -0.02430923 0.10066932 -0.039012663 0.093842864 0.016134776 -0.030061394 -0.09298497 -0.06447482 0.07964671 -0.09555117 0.07058706 0.09909161 0.14156857 -0.10141928 -0.03835367 -0.10759816 -0.08223957 -0.030103702 -0.08402751 0.00630013 0.11406737 -0.047935717 0.1385971 -0.10377927 0.06873265 -0.04091575 0.07042082 0.0056805825 -0.096543126 -0.043824624 -0.13022025 -0.022108551 0.1201789 -0.03586906 -0.10353356 0.0030608897 -0.10910995 -0.06476177 -0.0444996 -0.037985913 -0.07316725 -0.007768577 0.058918346 -0.035839282 0.013192939 -0.073872656 0.049162846 -0.09420396 0.043853853 0.060346324 -0.03605691 0.017361896 0.068395674 -0.0924176 0.15724519 -0.06646809 0.04812607 -0.09477324 0.0041233017 0.0127170915 0.076025754 -0.07851577 -0.039613176 0.032997288 0.16854067 0.05469338 0.10225267 -0.04494245 0.03362403 0.01989074 -0.05974943 -0.15145254 -0.10324421 -0.0430187 0.11379953
models -0.055832468 0.078136034 0.0077824336 0.016131064 0.19197273 0.07389239 -0.1313849 -0.1543489 -0.008542633 0.014014063 -0.118753284 0.011966921 0.18632773 0.075774 -0.059745207 0.043107536 0.041342333 0.014272529 0.100268856 -0.045850825 -0.0067885295 -0.08341062 -0.010550923 0.03432521 0.10275708 0.05783683 -0.10550802 -0.035868272 0.05058537 -0.117861085 -0.011544336 0.03821409 -0.13718936 -0.012785588 0.07753449 0.0333299 -0.00896641 -0.044826325 -0.07886006 -0.038177405 0.10134893 0.049435478 -0.00011731207 -0.01460535 0.1843709 -0.014685342 0.02578836 -0.07600942 0.024297616 0.112838455 -0.006631502 0.0014098105 0.15895323 0.038701337 0.12939487 0.0003954972 -0.010617244 0.057990056 0.039893933 0.1066476 0.14885248 0.0011377014 -0.122895315 -0.06788381 0.054610692 0.12316554 0.104297325 -0.20139661 -0.113457344 -0.0055456725 -0.040479206 -0.064492576 -0.09421804 -0.06467972 -0.09000497 -0.10026474 0.02099728 0.1831495 0.047076922 0.118404135 -0.08453906 -0.061461285 0.04045388 -0.08458747 -0.10098854 -0.111132644 0.07224069 0.03419549 0.018590193 0.08675535 -0.012210123 0.08033377 0.13732715 -0.039604593 0.050486334 0.009672935 0.0045791427 0.14280824 -0.038756903 -0.17448187 0.050364304 -0.007259124 -0.15272026 -0.012376749 0.150811 0.03329564 -0.08034285 0.09581103 0.09298846 0.13660257 -0.063361384 0.07734838 -0.059621394 0.028775087 -0.05188357 -0.11470398 0.2052288 0.049775884 0.10995035 -0.007870962 0.03355664 0.036249127 0.051008612 -0.015509675 -0.12266455 0.013162037 0.08341133 0.03965404 0.097016536 -0.11199483 0.0052224556 -0.079139 0.13991289 0.018596051 0.02001129 0.11208515 0.05487412 -0.07927549 0.0070747267 0.01529702 0.018487552 0.016346954 -0.14318216 0.100081265 -0.061668932 0.15777615 0.068540856 0.044149227 0.01117485 -0.06895457 0.043993924 -0.023066605 -0.07798524 -0.06381261 -0.17461123 -0.014294388 0.022579473 0.06539475 -0.06272106 0.08355644 -0.032362044 -0.06536547 -0.11991467 -0.067981124 0.0047827596 -0.02309168 -0.14803872 0.07633954 -0.038218647 0.03675967 0.044511575 -0.0101599675 0.036843665 0.065264635 -0.069488496 -0.016045682 0.021645404 -0.00072838773 0.08317878 0.0007832509 -0.10463928 -0.072176404 0.0717366 0.050368745 -0.0059682215 -0.20470656 -0.050770935 -0.1694887 0.07620924 0.10264345 -0.16456181 -0.1302296 0.01916742 -0.12067668 0.062393773 -0.01528529 -0.048223794 -0.03579197 0.05808637 -0.09187482
transformer -0.07495219 0.18729527 -0.12938292 0.026829481 0.082343586 -0.13872208 0.019340381 -0.050745465 -0.026755184 -0.11035712 -0.055294268 -0.028164748 0.10705416 0.06534021 -0.033094727 0.043866865 -0.13136172 0.03543311 0.1433077 -0.08768002 0.009491237 -0.04469249 -0.007614757 -0.19151826 0.1253995 -0.030476704 -0.12536794 0.051653422 -0.020687465 -0.06438507 -0.0055309716 -0.029093329 -0.14901288 -0.06768817 -0.016479844 0.121675335 -0.04712518 0.008524121 0.062210403 -0.031349707 0.007623244 0.20044787 -0.071481526 0.01159687 -0.064973824 -0.069758594 -0.027597345 -0.14957316 -0.089146554 -0.052927136 0.069989346 0.0044983737 -0.073145375 -0.03637257 -0.034214843 -0.05458709 0.09008183 0.061605684 -0.0512527 -0.077976614 0.07629397 -0.053627405 -0.12277612 -0.05203693 6.0636783e-05 0.044342954 0.04072237 -0.10658185 0.025495782 0.009827645 0.13815762 -0.11855897 0.058908567 0.15725638 -0.11049597 0.029653814 0.14527945 0.13695039 -0.1554977 -0.018315429 0.0023793404 -0.040033627 -0.032148715 0.13770294 0.003738626 -0.03569766 0.00049738516 -0.007613047 0.102490574 0.01251876 -0.09094327 0.03095826 0.12780783 -0.13322417 0.14372936 -0.13622993 -0.07841277 -0.0550859 0.04048391 0.010593573 -0.0069414983 -0.05629809 0.035225146 0.08781984 0.023023875 -0.08094793 -0.024180237 0.14754233 -0.057041686 0.1366207 0.13601205 -0.10274975 0.03506398 -0.033147283 -0.15355036 -0.04533719 0.13583675 0.101012975 0.06298244 0.062021054 -0.010666238 -0.06910256 -0.09050416 0.0946608 0.057414968 0.19877276 -0.15892957 -0.006790232 -0.02669736 0.030603148 -0.07506592 -0.07562121 0.026594946 -0.16879445 0.0016506291 0.082888745 -0.08899238 -0.016604677 0.12388775 -0.09664491 0.12142504 -0.08770506 -0.08138033 -0.030132145 0.16503012 0.0027755022 0.010328096 0.111054145 0.08499388 0.100289546 0.020212667 -0.09255734 0.029663242 -0.04434044 -0.068241134 0.0081412615 -0.02023384 -0.105106175 -0.14322329 0.12167363 0.041439153 -0.07620038 -0.02574829 0.041544724 -0.06938926 -0.00251516 -0.009023238 -0.00610223 0.0043114643 -0.010043449 -0.066306256 -0.060765572 0.046860684 0.017748822 -0.047030404 -0.021964213 0.14656815 0.13288043 0.07904614 -0.035085216 0.031092696 -0.041656163 0.11031216 0.12030353 -0.06375143 -0.005452175 0.0020470708 0.01337801 -0.12758029 0.07101873 0.06686716 -0.18861261 0.06565753 -0.08105346 0.061823394 -0.003969592 0.03002581 0.06456731 0.13228174 -0.17463079
of 0.15125412 0.010633482 -0.048472676 0.03188285 0.02714316 0.011091502 0.015062226 0.016466198 -0.090475075 0.052140087 -0.066219226 0.0011122935 0.025164727 -0.02729124 0.021893425 0.109978504 -0.072952315 -0.10747437 0.11800462 0.042281475 -0.05700306 0.04195318 0.03683556 -0.08119546 0.052172862 -0.015213582 0.01995103 0.029195085 -0.036978886 0.047140725 0.10641543 0.0098993145 0.0352209 -0.034257863 0.049608912 -0.0052063214 -0.046677966 0.03943198 0.01854742 -0.047839407 0.030804705 0.02438821 0.044530254 -0.040773474 -0.06471087 0.06291048 -0.080842644 -0.12597412 -0.08757615 0.09080824 0.038615007 0.0066629862 0.009163925 0.0067557273 -0.04657719 -0.14006431 0.05456781 -0.07815703 -0.0704244 -0.033836626 0.112007156 0.116019905 0.03943283 0.089533105 -0.02782609 -0.04540658 0.08325226 0.08835896 -0.10293782 -0.052022845 0.046572294 -0.01097927 0.07275555 0.10908627 0.039414383 -0.09863205 0.01526298 0.14485808 -0.18464796 0.09856932 0.015722593 -0.059632335 0.10985736 0.11218928 0.080546916 -0.0513626 0.03051857 -0.09918543 -0.035793312 0.11903882 -0.08814543 0.04164573 0.1078295 -0.030619165 0.1674157 -0.16976511 -0.080783024 0.049437135 -0.029046234 0.08734399 0.1549371 -0.07856151 0.06789811 0.06338625 -0.1578176 -0.05823068 -0.021929901 0.06855855 0.025623977 0.16593988 0.0813234 -0.025344986 -0.027106076 0.030597506 -0.10459957 0.0018102987 0.016435552 0.01337849 0.08143949 -0.08060544 0.013684878 -0.033006884 -0.11667393 0.14031036 -0.15276328 0.12285155 0.006011244 -0.14709528 0.068625435 -0.006841626 -0.07856008 -0.08942168 -0.015402137 -0.018549599 -0.12164296 0.031270474 0.083663054 -0.030755576 -0.020683981 0.041163433 -0.16490279 0.045914058 -0.06053009 -0.00950146 0.06752091 0.032333363 -0.09543439 0.049209233 -0.05867205 0.0033950529 -0.08344457 0.07915405 -0.088059425 -0.050225243 0.033460036 0.037899394 -0.09989255 0.04630931 -0.05862995 0.04860605 -0.044988673 0.066817425 0.003008153 -0.11416736 0.057648994 0.026967745 0.056377996 0.044930067 -0.12660807 -0.012362998 0.1305537 0.0950341 0.0700543 0.037028562 -0.0278868 0.047209073 0.107531786 0.0058594183 -0.03414925 -0.043404087 -0.13107184 -0.049888294 0.07753898 -0.026884817 0.08550953 0.0033514677 0.06277495 0.03774334 -0.16694972 0.04664587 0.14674364 0.034883197 0.08120348 -0.08747336 0.06251177 0.0029298407 -0.042874318 0.03198188 0.10794758 -0.0555278
attention -0.09660301 0.035794593 0.1423846 0.071638994 -0.11786252 -0.080922455 0.1501251 0.048131563 0.031762205 -0.03261949 -0.045650274 -0.12359396 -0.035369493 -0.13239072 -0.06332596 -0.10562062 -0.039657064 -0.022642119 -0.049255952 0.14770003 -0.02563715 -0.13353972 -0.013900088 0.09168489 -0.1065578 -0.078849256 0.023031406 -0.009031811 0.08241767 0.0022082597 -0.0802476 -0.11528873 -0.038411915 0.038550187 -0.06822293 -0.03255406 -0.026423957 -0.10870371 0.013474857 -0.05268269 -0.06651428 0.10732091 0.026995499 0.09809984 -0.04450484 -0.08967931 -0.1131018 0.02511931 -0.031954557 0.0048289653 -0.05944358 -0.051600438 0.12282222 0.032053627 0.09891963 0.049324673 0.0664242 0.0936677 0.050624676 0.048212253 -0.104640424 -0.109175235 0.15292332 0.026671216 -0.019153645 -0.033014346 -0.07348396 0.087007985 -0.083050616 -0.07460697 -0.054222673 0.06343769 -0.006990771 -0.06631091 -0.0042478917 0.15191647 0.0021153647 0.06171696 0.031407893 -0.066110216 0.07091636 0.14049903 0.043403454 0.007188735 -0.20037484 -0.017806942 -0.03924957 0.13190186 -0.081606045 -0.026019603 0.06791804 -0.05089669 -0.14699548 0.17498145 -0.010896913 0.06233756 -0.07353319 -0.13908765 -0.077674635 -0.14547291 0.017547118 0.1267487 -0.058300193 -0.13364826 0.023025563 0.018816048 0.015269898 0.032415938 -0.08161916 -0.039256755 0.025674876 0.04922107 -0.022066133 0.043971956 0.07137618 0.032754626 -0.093543164 -0.14055598 -0.09670785 0.07645701 -0.038530074 0.022533346 0.066706374 -0.040599514 -0.1437489 -0.20844336 -0.19468619 -0.02824827 -0.014863791 -0.06345827 0.119084604 0.076993234 -0.106253386 0.1798389 0.052495144 -0.115753956 -0.12489141 -0.024947982 0.041336134 0.10099452 0.015171658 0.01828175 0.019503912 0.07581065 -0.00538719 0.07431781 0.04911916 -0.06384118 -0.020952433 -0.096989915 0.045614734 -0.094466604 -0.01599334 -0.09436968 -0.1428313 -0.051400285 -0.051505603 -0.14496572 -0.018865166 -0.03793225 0.15127969 -0.1668129 -0.017633528 0.08031307 0.09988634 0.03541633 0.047082946 0.010976263 -0.06031908 -0.006156928 -0.08143364 -0.08474867 0.0299836 -0.0669055 0.15059677 -0.0028212443 -0.105365135 0.036674723 0.1243077 -0.0027492426 0.03572513 -0.077806994 0.022093447 -0.00390476 0.11035014 -0.077770755 0.076527834 -0.05329338 -0.06018457 -0.006449607 -0.123501346 -0.038548898 0.021612119 0.053100515 0.07202921 -0.057068273 0.13520913 0.015914878 0.014422977 0.040743712
deep 0.022848163 -0.12302557 0.08279812 -0.08688064 0.090375505 -0.070554115 -0.20376109 0.037126087 0.03441604 0.14152935 0.061399862 0.052278854 0.10276278 -0.024833817 0.0036420883 -0.06766194 -0.063403964 0.008521539 0.015533293 0.077642485 0.0065111034 -0.006513196 0.07240006 0.020766515 0.027468232 0.14228255 0.016247123 0.09794001 -0.19773093 0.09442103 0.17371869 0.026233563 0.063233286 -0.06244194 -0.005115797 -0.11124092 -0.032615907 -0.15830977 0.08692783 0.009603491 0.010198085 0.12054759 -0.059061524 0.10993598 0.066921264 0.045952216 0.0016950768 -0.0153591875 -0.16478753 0.033489477 -0.18514633 0.10872918 0.043806907 -0.07239798 0.15399237 0.20945708 0.04039927 -0.14646384 0.06472557 0.12485544 0.14048842 -0.018394137 -0.09396817 -0.01585377 0.022345671 -0.028166965 0.075831115 -0.14329286 -0.04575571 0.08212107 -0.046732567 -0.08481034 -0.06320803 -0.14998485 0.10678019 -0.11824941 -0.017020252 0.15125613 -0.103835 0.012894123 0.14948606 -0.061909597 0.021903353 0.061468054 0.1260268 -0.024765536 0.09218883 0.07321571 0.03432884 0.15175615 -0.112435505 0.0010942774 -0.034952853 0.07221546 -0.0016016497 -0.11194359 0.060795393 0.15719453 0.0020278674 -0.091992624 -0.06351433 -0.037592728 0.050594226 -0.07056233 0.18142557 -0.08091821 -0.051725946 -0.03786253 0.13895765 0.046157952 0.04555884 -0.07720091 0.0741936 -0.00390833 -0.22844432 -0.07727873 -0.069646865 -0.14838022 0.053611953 0.08160282 0.041991226 0.045940727 0.08113128 -0.04156443 0.020800967 0.055459205 -0.101984985 0.1356735 -0.07711642 -0.18241853 0.028694343 -0.14914584 0.07528196 0.0053645144 0.018820861 -0.011360409 0.03729561 -0.08809172 0.18276788 -0.07745044 0.025155125 0.03456701 0.08740413 -0.04002766 0.15280536 0.21203004 -0.1897071 0.0013763128 -0.0058588283 0.2467645 -0.088449106 -0.077128 0.099893965 -0.09310694 -0.030375788 0.040629517 0.0013719802 0.07430714 0.039414216 -0.056427777 0.046319682 -0.077842936 0.03326227 0.032114033 0.008456957 -0.10767024 0.04041841 0.11771226 0.051171962 0.12660977 0.07357068 -0.041437864 -0.11999489 0.08505298 0.011443706 0.15815829 0.14239717 -0.04253972 0.058384053 0.030029349 -0.19419691 -0.09750199 -0.08406355 0.22428012 0.036906753 -0.08376982 -0.13198626 0.13704622 0.06061061 0.039684545 -0.02751079 0.047388032 0.015622663 -0.17635357 0.027806789 0.024944194 0.06376995 0.0058777845 -0.0012267763 -0.045331992
learning -0.0039941673 0.024650669 -0.027879305 0.037173316 -0.050255325 0.029696865 -0.09564254 0.0030118297 0.13762924 -0.059101418 0.20782058 -0.019106098 0.092697084 0.030596446 -0.07703427 0.12746456 -0.09876774 -0.094135754 -0.07849547 -0.08633412 0.047383867 0.13814196 -0.081048936 0.032188017 0.13930517 0.26160094 0.049397916 0.16748694 -0.056365907 -0.05820258 0.04993962 -0.03684075 0.07483742 0.02086209 0.10134656 0.017057411 0.037475698 -0.14554958 -0.1288391 -0.055160977 -0.080506004 0.11385692 0.11368839 -0.14744139 0.014779483 0.07463356 0.022671372 0.017845752 0.02814491 -0.043558367 -0.02951709 0.17358726 0.018854303 0.030638764 0.111775585 0.08351053 0.03478268 -0.026977055 -0.071957596 0.030461306 0.1333326 0.05537452 -0.07240501 -0.11601626 -0.06903979 -0.119559765 -0.12746581 0.031328067 -0.017531123 0.12643911 -0.0794158 -0.048018947 -0.04206324 -0.16404034 -0.095667146 0.0826915 -0.05071145 0.04671613 0.21112673 0.031217583 0.18240924 -0.11014192 0.08923208 0.041651636 -0.057216115 0.1484364 -0.1181114 -0.052709844 -0.13987814 0.19491066 -0.058143403 -0.05335475 -0.050082218 -0.09005948 -0.121781126 0.13310342 0.045799952 0.099192224 0.16397685 -0.05597175 -0.06974034 -0.016200539 -0.056577675 0.09161579 0.23212297 -0.03291161 0.13443545 -0.065795496 0.14074369 -0.018960582 -0.038298197 0.12161147 0.013596679 -0.0019126504 -0.03676865 -0.13712117 0.15455157 -0.11427888 0.1805476 -0.024057409 0.13127826 0.0014027872 0.004337846 6.8386435e-05 0.02981444 -0.014210173 -0.042320143 0.054270297 -0.095745765 -0.090134166 -0.094498515 -0.16502458 -0.058968574 0.0012382109 -0.1346546 -0.09779189 -0.063879415 -0.03131397 0.0043449416 0.029504646 0.13096033 0.07541243 -0.009556764 -0.018259145 0.07551404 0.20259784 -0.17087248 -0.028897978 0.0100359935 0.057407837 -0.044169944 0.04686709 0.10234134 -0.13456237 -0.006159284 0.10618662 0.10213745 0.073970206 0.08225027 0.041342825 -0.016717501 -0.03527021 -0.02924942 0.03066976 0.07922739 0.07100599 -0.123783804 -0.10447649 0.038505785 0.13877764 -0.06514027 -0.114929385 -0.12068424 0.04118992 0.017942462 0.028085656 -0.05600431 0.053117644 -0.1099495 -0.03503267 -0.14853312 -0.07920541 -0.05929326 0.04958134 0.14468202 0.03232718 -0.16818497 0.067333765 0.06420938 -0.0036244958 -0.043295536 -0.10677455 0.029601116 -0.036462575 -0.11087602 0.15149844 -0.027398715 -0.055339757 0.058149282 -0.037235852
text -0.01372067 0.117897466 -0.15069315 0.030561658 0.17250355 0.013758644 -0.0020926308 -0.08165952 0.09984416 -0.109759204 -0.19412993 0.039676286 0.1257158 -0.010641073 0.113583066 -0.08275587 -0.11798719 0.05994556 0.14443628 -0.14953555 0.02205387 0.1415536 0.08102466 -0.15352346 0.0701071 0.004389912 -0.17983396 0.014045872 0.042012412 0.061052304 0.12847562 -0.045996573 -0.11486806 -0.09281637 0.06749563 -0.037031736 -0.057433426 -0.079998314 -0.055428293 -0.18784958 0.0155169945 0.20223369 -0.035987988 0.14822987 -0.04090222 -0.009335215 -0.073122166 -0.098158285 0.102327146 0.10202453 -0.12795086 0.057974774 0.114130504 0.023292812 0.09899727 0.047023848 0.05435219 -0.05430805 -0.06973939 0.06876767 -0.047821395 -0.038425807 -0.08551543 0.07370687 -0.034016162 0.07929021 0.12441564 0.055675015 0.08521158 0.06497147 0.14106727 0.053193837 -0.004760784 0.2190736 0.08940233 -0.14468715 0.18421796 0.02392034 -0.035027966 0.08691221 -0.05237812 -0.037355743 -0.07072124 0.12259177 -0.09272565 -0.0196648 0.10339898 0.13112189 0.037959743 0.05108448 -0.042792156 -0.0008736474 0.18664715 -0.11305287 0.18588342 -0.08555135 0.021909092 0.0032189912 -0.025757276 0.0274349 0.09903421 -0.05422788 0.008024484 0.052331608 -0.047185373 -0.03946218 -0.06886434 0.065034464 0.07211024 0.05515425 0.07882381 0.1287439 0.03668664 -0.08838516 0.018007327 0.033302046 0.06497623 -0.0887002 0.10240824 -0.009731691 -0.15896375 0.0666878 -0.013030793 0.057377618 0.055313617 0.018937703 0.019607019 -0.105259225 0.04299819 0.061099477 0.016895304 -0.08108155 0.044067323 -0.15946253 0.10687888 0.09068003 0.06064944 0.00894043 0.06612634 0.02924047 0.06676444 -0.0580472 0.0435503 -0.014281038 0.08885105 0.0011537429 0.04627748 0.1275951 0.1739152 0.13670328 -0.09353238 0.0020548804 -0.053848263 0.009246858 0.08233121 0.11985483 -0.11755598 -0.1095627 -0.00783576 0.17232929 -0.08973232 0.04158271 -0.058593635 -0.033421855 -0.14014292 -0.122359715 -0.170405 -0.046187863 -0.07225566 0.053725317 0.023821846 -0.01266072 -0.02710082 -0.123286955 -0.017162727 0.15017426 -0.04266032 0.065738834 0.041412283 -0.007485642 -0.046821002 -0.15446438 0.11470229 0.049055155 0.059064522 0.038834292 -0.033922903 0.011896472 -0.020452628 0.06103254 -0.051165767 -0.06520585 -0.036644783 -0.01654047 0.07693162 0.022270216 0.17515883 0.06779823 -0.015881788 -0.18426338
loss -0.022975551 0.06470729 -0.03965708 -0.033362158 0.024918396 -0.028983517 -0.04334611 0.0046409783 0.10587451 0.099068075 0.12701449 0.031452015 -0.15034638 -0.06640576 -0.1238626 -0.07999279 0.029673599 0.04044412 -0.15345904 -0.03897757 -0.09203666 -0.0032062312 -0.018263897 0.07981291 0.053917963 -0.06005308 0.11778442 0.104882225 0.0044712406 -0.006566151 0.044647966 -0.02494286 -0.014679686 0.044478692 -0.099538736 0.02404115 0.09045457 -0.018898414 0.007214901 0.012321593 0.08288696 0.06772281 0.056103945 -0.085641205 0.039417658 0.12662098 -0.2000073 0.15133415 -0.057930473 0.0045803366 0.01776238 0.053962857 0.093813404 -0.07070617 0.005668159 -0.031292602 0.028624306 0.0039550867 -0.07377055 -0.08968116 0.09563473 -0.0656019 0.1392087 0.036847256 0.02012763 -0.07593502 -0.16986658 -0.10076375 -0.013556463 -0.02882043 -0.0011953949 -0.12670621 0.08021649 -0.11989231 -0.045082778 0.17463067 -0.07161883 -0.04972115 0.018713789 -0.08424441 -0.025279377 -0.0041446914 -0.07407964 -0.014469459 0.018286172 0.0056619667 -0.0041613677 -0.09754679 -0.02580835 -0.09594634 0.10886501 -0.05173544 -0.14829724 0.06499677 -0.07963438 0.16940041 -0.11908624 0.016892362 0.016596751 -0.009277513 0.033117756 0.15819375 0.015252081 -0.07902568 -0.08329981 -0.030439815 -0.104874216 -0.083207645 -0.06976167 0.031065613 -0.17403245 -0.012940995 0.02611933 -0.10324831 0.06381519 -0.010994001 0.04808091 -0.053326745 0.05422033 0.05777419 0.05947166 -0.07313462 0.10766132 -0.11368045 -0.034879755 -0.13128647 0.009231408 0.05547622 -0.05862665 0.07612307 -0.0550965 -0.062895395 -0.029937802 0.22814989 -0.010490049 0.022699963 0.12491398 0.105399475 -0.031102391 -0.039776977 -0.118381575 0.14520706 -0.058423992 -0.04455622 0.021610118 0.063472204 -0.09488139 -0.04520622 -0.009861969 0.1406423 -0.009188866 -0.025297614 -0.11359472 0.01259569 0.017557925 -0.16956124 0.040523145 0.017643426 0.069834545 -0.1600048 0.08695156 -0.07664631 0.05349675 0.01723021 -0.015477548 0.039614886 -0.051398292 0.0503346 -0.045793053 -0.050977003 0.07271156 0.0815579 -0.013051692 0.11215015 -0.017905453 0.023628963 -0.060693793 -0.08148816 0.073853254 0.053620655 0.16351518 0.07091912 -0.1081254 -0.15264411 0.14283594 0.023431292 0.10697688 0.08705742 -0.07882738 -0.027758105 -0.030231737 -0.039213754 0.11976997 0.08276222 -0.06042626 -0.065842465 0.060226247 -0.029032247 0.03749799 0.1503383
machine -0.16367197 0.14112376 -0.15033033 0.13753223 -0.06441916 0.055026628 -0.08978285 0.044794146 -0.12703161 0.024798457 -0.12822014 0.047970507 0.041987345 0.024669511 -0.09915104 -0.13799566 -0.1584573 -0.06589746 -0.00080126175 -0.020811083 -0.02260492 0.119673036 -0.15865387 -0.09368807 -0.0075246915 0.0675356 -0.029456967 0.03552048 -0.054142646 0.028996693 0.026429735 -0.10927407 -0.10431717 0.08167173 -0.09071795 0.05079906 0.0019241329 0.105812125 -0.046367574 -0.006140056 0.05273272 0.16591272 0.09382878 0.05479462 0.029375846 0.09072925 0.094342 -0.04681249 -0.05424725 0.059682537 -0.014760971 0.06999467 -0.14306895 -0.12164264 0.00778869 0.0785334 0.19385888 -0.10368036 -0.056370623 0.10547565 0.098919675 0.084852636 -0.0048874323 0.04441865 0.11741523 -0.051773556 0.05918921 -0.048650965 -0.10767179 0.018382223 0.24301133 0.09616703 0.059675522 0.06514158 -0.08117803 0.04961234 0.02466001 0.13063818 -0.075916335 -0.019261153 -0.058632147 -0.032516498 0.23481514 0.10528993 0.060532115 -0.1175259 -0.13809063 0.17102861 -0.00739161 -0.05212395 0.038072348 -0.022833105 -0.07472964 -0.15761887 0.055287234 0.036265295 0.002516244 0.03983831 0.04904607 0.056965902 0.13326219 -0.1792141 0.07313523 -0.037859194 -0.14250271 -0.091064446 -0.039153926 0.090891 0.024299657 -0.034216814 0.031399157 -0.1581125 0.19177717 0.04175224 -0.14770651 0.18853435 0.14107597 0.07256482 -0.087010786 0.016157841 -0.10146363 0.13478619 0.017765243 0.0030075028 0.03655676 -0.007312501 -0.13995966 0.03075431 -0.15922958 0.11765783 0.051158674 0.103053056 0.08997383 -0.03471176 -0.06679229 0.06817218 -0.10213122 -0.1297252 0.14502436 0.006669488 0.27500182 0.050830487 0.05185009 -0.005413439 0.16369316 -0.021640772 0.10729308 -0.15155745 -0.05002215 0.07907118 -0.034066048 -0.20701215 0.019998588 0.020100188 -0.025354983 0.09125712 0.06904484 -0.09740102 -0.029169308 0.09695522 -0.025869874 0.09222428 -0.1458742 -0.021161702 -0.059981763 -0.096689165 0.03506711 0.083121896 -0.18949093 0.023498101 0.03540991 -0.029589742 0.13081624 0.19838166 -0.09470342 0.13510035 0.019606877 0.06945392 0.1564451 -0.13512954 0.02961438 -0.0007265215 0.086871944 -0.044459336 -0.09273221 0.008889539 -0.07220285 0.11607393 0.106512 0.057186175 -0.15682456 -0.0979154 -0.12535736 -0.078942105 0.029295577 0.1688241 -0.04200794 0.03671041 -0.14141406 -0.0630439
networks -0.21298102 -0.051477727 0.1023735 0.010064311 -0.17823648 -0.14176635 0.056152496 -0.13920838 0.050194178 0.087559626 0.014207008 0.03952401 0.03485779 -0.066430576 0.006947959 0.0823108 -0.035608817 -0.048001498 -0.050796844 -0.04645989 0.03727982 -0.013890538 -0.058225438 0.034249164 0.12856455 -0.11580261 -0.07316841 -0.07678961 -0.03496816 -0.0252365 -0.02083661 -0.11311543 0.12179722 0.067293845 0.0086045945 -0.083500855 -0.0656169 -0.06956119 -0.013809035 -0.03799583 0.012387423 -0.13633536 0.05152753 0.16674133 -0.08007674 -0.041050628 -0.0029861045 -0.03814307 -0.08687369 0.06477967 -0.025390564 -0.12373135 -0.13271928 -0.0365805 0.021691632 0.023465477 0.12259498 -0.010724809 0.050751038 0.05126132 -0.033775393 0.045669004 0.07990153 0.054790687 0.13346161 -0.12095974 -0.03782447 0.034158047 0.07058322 0.02020647 0.047588706 0.15746298 0.11339176 0.028073343 0.08990708 0.07922197 -0.03141963 -0.04808755 0.09898962 0.00018517848 -0.0004341267 0.10802632 0.00033784518 -0.002184366 0.011192903 -0.02404617 -0.10356969 0.16064371 0.09696387 0.07818065 -0.036410764 -0.11556995 0.0004141885 0.08305644 0.034209657 -0.07885768 0.091853805 0.06019338 -0.066234484 0.06776411 0.09154107 0.019289074 0.06435889 0.05950757 0.07348828 0.07355027 0.03362175 -0.12962274 0.079775296 0.04718191 -0.10190229 0.047180884 -0.041910898 0.071706116 0.02833378 0.022302128 -0.0039639315 -0.053514972 -0.028947014 0.1084917 -0.038476963 0.06441894 -0.07092996 -0.039289318 0.060255185 0.114374645 0.0400584 0.07243323 0.019113366 0.04406089 -0.116176255 0.012438532 0.09964888 0.048226584 -0.02545947 -0.10377223 -0.018034354 0.06672401 0.08182161 -0.008075724 0.013351459 -0.13819006 -0.012595657 -0.08681384 -0.068228975 -0.029927455 -0.02737354 0.03135603 0.031409368 -0.08558888 0.04960036 -0.017558621 0.074396215 0.10644293 -0.05238287 -0.005959467 0.072112285 -0.054102194 0.027821386 -0.012218584 0.057346243 0.09590481 0.09907163 0.03489456 -0.04088425 -0.062058467 -0.069628306 0.096852526 0.0024822596 -0.042763203 0.13298748 -0.059388157 -0.068069264 -0.0049553243 -0.0798023 0.04484994 -0.09599627 0.009408975 0.10359793 -0.11054973 -0.057239283 0.029593285 0.02433079 -0.04075938 0.013103494 -0.1127358 0.09314468 -0.13178974 0.095461994 0.06187583 -0.03769168 0.12043204 0.04844319 0.023958294 0.045481734 0.0012638981 0.10156049 0.051732898 -0.13306053 -0.124820195
processing 0.09749177 0.10612864 -0.025399279 0.040898573 0.101825796 0.089222856 -0.064356335 -0.0069035916 0.003466826 -0.023695141 -0.07139974 0.08539285 0.1763621 0.09149694 0.21156412 -0.049307156 0.07019237 -0.015137742 0.1554288 -0.08806709 0.068242975 0.0907803 0.07769071 -0.09847865 0.048147332 -0.08788706 -0.15610774 -0.032860253 0.078448206 -0.117725 -0.03580111 0.01625774 -0.12235615 -0.21644066 0.02427256 -0.060878195 -0.1662474 -0.0029751488 -0.06542805 -0.22182523 0.03701079 0.16325305 0.0011972524 -0.107142664 -0.08305918 -0.06481398 0.06932775 -0.19057621 -0.056642327 0.06500173 -0.08498351 0.139191 -0.092593394 0.056173693 0.105880335 -0.060384475 0.048249792 0.12950565 -0.017945435 -0.014797841 -0.05157702 0.09740122 0.021219423 -0.06778846 0.04254364 0.095325254 0.11768963 -0.115326874 0.018657176 0.059825197 0.009252504 0.11422892 0.04121374 0.13570392 0.0574657 -0.124093026 0.118119955 0.021522373 0.008089131 0.070123635 0.035526868 0.013219693 -0.107467584 0.012459617 0.026630908 -0.0991018 0.2524864 0.07283335 -0.058871616 0.094454676 -0.008145518 0.14335546 0.08518688 -0.082550816 0.13657779 -0.20015205 0.013194935 0.12716688 -0.11416419 -0.03751481 0.2063982 0.012244225 -0.05180863 0.088193305 0.010742826 -0.07136996 0.017182374 0.09811244 0.009229398 -0.13641253 0.123513445 -0.013630256 -0.02682277 0.0070820376 0.021392476 0.07805785 -0.084951684 0.013438382 0.044544674 0.10294074 -0.16634147 0.05860437 0.12792572 -0.021450283 0.065832905 0.034338836 -0.054815467 -0.07814188 0.032332085 -0.11008138 -0.17499194 0.10591396 0.014952049 -0.046299506 0.01724477 0.08744459 -0.09097121 -0.014196064 0.08916227 0.111072734 -0.018141959 0.1267054 0.030048037 -0.06278989 0.14240849 -0.09919493 0.19482748 0.04142218 0.07594846 0.043243285 0.025198653 -0.10267476 0.062161367 0.14592344 -0.043319985 0.11665029 -0.019023543 -0.07579202 -0.10444879 0.13629647 -0.077515826 0.104632996 -0.027888626 -0.011601477 -0.06338404 -0.043676086 -0.17511095 0.01100167 0.0900682 -0.012241441 0.014502026 0.059764516 -0.05940908 -0.028825639 -0.09930548 0.066495344 -0.075858615 0.044674385 -0.03614038 -0.084298305 -0.035418257 -0.11899439 0.04538345 0.0006832477 0.015055771 -0.107459 0.05046551 -0.05665356 -0.16810445 -0.09709958 0.0038166048 -0.15751497 -0.13859196 0.06935999 0.0815633 -0.009640835 0.15304524 -0.1297863 -0.06558163 -0.07484063
model 0.036425374 0.009522292 -0.05728569 0.02211179 0.006785459 0.009123363 -0.112929344 -0.019691657 0.062226236 0.102986254 0.051824782 -0.053913116 0.05825669 0.04633785 0.10962441 0.10179051 -0.08519193 0.026452327 0.059501253 0.09386888 0.017996714 -0.014087347 0.101142704 -0.00096943945 0.0484238 0.06513952 0.02061252 -0.020759152 0.11206111 -0.09213449 0.064499244 0.02354103 -0.03510093 -0.06689606 0.038302068 0.06627028 -0.0037996985 0.011188792 0.06491613 -0.009632873 -0.017546928 0.10499862 -0.010095635 -0.06189485 -0.06478089 -0.015711058 -0.055049066 -0.018724011 -0.0063682715 -0.0014277536 0.045618914 0.032382943 0.082218185 -0.06875116 0.07366312 -0.086036704 0.09365395 0.056524813 0.015122492 -0.036029898 -0.04451831 0.05341381 0.044241168 -0.04003761 0.10144714 -0.009740218 -0.02839819 -0.09361953 0.13740328 0.050413083 -0.079078905 -0.08590959 0.038353465 0.057796285 0.064010866 -0.04703173 0.0826937 -0.049099594 0.07105954 0.0055962335 0.07467648 -0.039825227 -0.0027162053 0.012663896 -0.03715126 0.081455365 0.0727317 -0.09877066 -0.013579756 -0.0906237 0.051327363 -0.006786992 0.03318296 0.041639984 0.08224732 -0.11585692 0.020991225 0.11761447 -0.07792381 -0.04641572 0.07313393 -0.06847533 -0.041999985 0.10309319 0.018558813 0.035382397 0.049653888 0.10680996 0.014267504 0.00085268845 -0.015134027 -0.06346977 0.101442374 0.013067939 0.0024193022 0.019087812 -0.052720085 0.0937953 -0.053385705 -0.06778214 -0.028081508 -0.061877366 0.06497168 0.067459084 -0.032511353 0.16043575 0.015250571 -0.087739214 0.011841824 -0.018193906 -0.15051048 -0.02308884 0.08499303 -0.09093234 -0.058951057 -0.048147608 -0.10726582 0.0109210275 0.084279716 0.035350807 0.050824575 -0.075688355 0.0039718985 -0.012498955 0.03483879 -0.0870298 0.06340847 0.10465485 -0.0151131265 -0.024552299 0.010380507 -0.075532846 0.0015717368 0.09548556 0.08183562 -0.03688228 -0.018062616 -0.12561113 0.04487523 -0.03149697 0.07854044 0.12813985 -0.061257914 0.07033476 -0.0030940585 0.014670726 -0.014703545 0.026387285 0.052221667 0.05417362 0.017598413 0.05235578 -0.035450857 -0.049892254 0.008010582 -0.043669775 -0.124572754 0.06283629 0.07829513 -0.11566509 0.026323603 0.009107953 -0.12364065 0.028105635 0.029268712 -0.13727435 -0.05445917 0.12296723 -0.01675755 -0.0062829726 0.073011994 -0.013594379 -0.047392577 0.06202517 0.102427974 -0.061889507 -0.04735531 0.039757766 -0.009242437 -0.13702956
detection 0.03292149 0.036840968 -0.014964344 0.08051569 0.06264153 0.011214797 -0.04009728 0.10944408 0.09327288 -0.16574216 -0.13164246 -0.051748775 -0.08423847 -0.070446536 0.020430872 0.0797714 0.0947219 0.015928227 -0.11759604 0.013494559 0.089989424 -0.12719348 0.023189347 -0.08287927 -0.014564357 -0.008781896 -0.05472328 -0.05515243 -0.17608605 -0.008556093 -0.016945291 -0.037847757 0.03188895 -0.07732303 0.09560039 -0.018114481 -0.03800936 -0.06953288 -0.052308876 0.0013160412 -0.14231037 0.117498875 -0.06120822 0.10790777 -0.0010066513 0.12665594 -0.0298202 0.048383098 -0.01589457 0.03529925 0.05149968 0.11319529 -0.011447182 0.09120688 -0.040941253 -0.06048072 0.17455976 0.07026181 0.051444814 -0.028296335 0.072801486 -0.07982317 0.06726718 -0.06149043 -0.0021392684 -0.010553879 -0.09829566 0.01984251 -0.06865672 -0.10237713 0.14350949 0.00982956 -0.17916794 0.00068158226 -0.1032113 0.010840685 -0.059606787 0.08956254 0.0922668 0.03284576 -0.01132031 -0.029369967 -0.069316395 0.06609903 0.06340219 -0.086611494 -0.059691273 -0.022347318 0.15072218 -0.0029294076 -0.013155014 -0.021092445 0.07156265 -0.099407546 -0.032634277 -0.022191796 -0.015799318 -0.05999212 0.106787056 0.15601614 0.022856422 -0.04614353 0.17252499 0.024810437 -0.057818957 -0.066893026 -0.057723843 0.043428533 -0.029411009 0.0151953 -0.07465844 -0.1071019 -0.013944692 0.07665292 -0.20025676 -0.02492422 -0.06669362 -0.0020050204 0.038283926 -0.013458491 -0.06847942 0.006054292 0.06529916 -0.06713827 0.009053721 0.08418639 -0.023760807 0.06626018 0.08136811 -0.013566004 -0.017900739 0.01059271 0.013362205 -0.07510994 -0.061247326 0.054122817 -0.08459382 0.09505221 -0.051589176 -0.124363355 -0.029249374 -0.128405 0.058129292 0.0028184454 0.027449088 -0.10664413 -0.09376069 0.10740173 0.08019469 -0.12391922 -0.044616677 0.028700603 0.035898454 -0.12092665 0.06988314 -0.027653918 -0.01189827 0.05447989 -0.044060282 -0.02819834 0.01680485 -0.022167616 0.06736024 0.036896367 0.050315686 -0.035466507 0.005948468 -0.054965895 0.057065375 0.025366843 0.0030436115 0.067712635 0.09811704 0.07125268 -0.036444437 -0.06087231 -0.008810682 0.13515565 0.11052599 0.02383003 -0.11040473 0.07250482 0.015415603 0.06402054 -0.09278383 -0.03535003 0.08913621 -0.029209612 -0.07275525 -0.049452335 0.03842968 0.051157035 0.06196118 -0.14945732 0.10686664 -0.13956864 0.06598018 -0.03315436 0.0020399515 -0.10957324
semisupervised 0.13697134 -0.036526803 -0.1273903 -0.047848478 -0.08166784 0.01962171 -0.073860236 0.05444505 0.1389177 0.02468005 -0.051238608 0.07273989 0.12997295 -0.09302283 -0.00034935935 0.10303488 -0.06614966 0.07177814 -0.019085819 -0.06055793 0.044155017 0.10919586 -0.07694807 0.04671396 0.01827935 -0.029889716 -0.027467854 -0.07885165 -0.10093268 0.11491271 0.042110737 0.1346856 -0.021135509 0.0075705624 0.047135685 -0.06986979 0.078294456 -0.12745246 -0.011063317 0.0012589423 0.023428276 -0.012509595 0.054652765 0.010807929 -0.0076391986 0.025677051 0.0031381196 0.03269797 0.08312241 -0.10224341 -0.025021149 0.07875572 -0.12684664 -0.052868284 0.051582426 0.0675588 0.0038890145 0.0015475587 0.09776813 0.014705304 0.09376038 -0.04474642 -0.09261294 0.017827787 -0.029180638 0.054132823 -0.01175671 0.0017216821 -0.009225288 0.10774672 0.017576233 0.1611986 0.031896416 -0.059440523 -0.020293375 0.056193985 -0.0036156531 0.057211395 -0.05366445 -0.040711533 -0.027500821 0.022530166 0.063689806 -0.03863207 0.12001421 -0.017363625 -0.10111604 -0.1564963 -0.045552306 0.0815713 -0.06393394 0.08764331 -0.0033514467 -0.030870209 -0.040531844 0.037085228 -0.004511905 -0.010004738 -0.018111277 -0.031940915 -0.08788993 -0.08075324 -0.04882466 0.16168794 0.081916206 0.046373423 -0.023605758 -0.057242304 0.11057179 -0.00094210147 -0.08647813 -0.049106933 0.063910425 0.04652093 0.06150047 -0.01812081 0.08482085 -0.06461287 0.037109677 0.081547506 -0.027534494 0.07119618 0.0050903596 -0.14429267 -0.040336873 0.09716134 0.051148824 0.097979546 0.13018578 -0.13400398 -0.17771828 -0.127648 -0.045529146 -0.024152188 -0.026357645 -0.0073192385 0.009514937 0.030811502 0.092230566 0.059643146 -0.012519393 0.001045682 0.14188789 0.010740628 0.11733509 -0.007739794 -0.1785499 -0.10824624 0.08772833 0.0415682 0.06006598 -0.0007497822 0.1296455 -0.11953702 0.14142169 0.030516868 0.029735873 0.09021316 -0.013214056 0.020410713 0.013545379 -0.0137042655 -0.028725432 0.028166328 0.17063473 -0.12893344 0.0535074 -0.050670456 -0.050881356 0.08138308 -0.013930592 0.025818447 -0.004433588 -0.084877044 0.06959984 0.09853592 -0.038017437 0.11062346 -0.10308427 0.07600714 -0.08773429 0.055071384 -0.0008714753 0.12293576 0.07890481 0.0705159 0.0036875668 0.058561802 -0.034881953 -0.056482974 -0.054622322 -0.00574837 -0.07454633 -0.024072047 -0.06932092 -0.09984004 -0.028963633 -0.12783639 -0.13343684 0.09825829
translation -0.17619137 0.12433206 0.02707818 0.10162436 0.006851214 0.023260742 -0.09774881 0.07722679 -0.12813517 0.09936996 -0.1593398 -0.034171823 0.057900704 0.15136448 -0.108445495 -0.19340768 -0.11799206 -0.113635086 0.09813334 -0.045403697 0.024470516 0.041144386 -0.14352947 -0.09569473 -0.004249772 0.017022276 -0.13305132 -0.029407265 -0.040110793 -0.12643577 0.040900238 -0.025666127 -0.13691364 -0.008704897 0.03459046 0.09328507 -0.10823858 0.118814744 -0.09980638 -0.14404553 -0.061289575 0.23180884 0.045992244 -0.042036083 -0.04519221 -0.006919115 0.07600552 -0.10144085 -0.05928686 0.17537658 -0.10803473 0.07247746 -0.08354912 -0.03529031 -0.06646094 -0.09038105 0.14974636 0.060427807 -0.12775157 0.010544047 0.12429239 0.105912365 -0.023462329 -0.09550573 0.21842131 -0.021602826 0.09417285 0.002771677 -0.05349598 -0.021437613 0.2082783 -0.036752485 -0.037577488 0.10038513 0.05863172 -0.039438196 0.058829334 0.14026688 -0.04771611 0.038871065 -0.017063359 -0.020961912 0.1529041 0.07338104 0.01774442 0.0030422572 0.026740586 0.2284707 0.042062584 -0.048685618 0.0015680252 -0.014456147 0.09825083 -0.24738859 0.14136419 -0.13546309 -0.009888212 -0.01941877 0.14284247 0.003908368 0.17575839 -0.1129355 0.1891332 0.08939044 -0.16209905 -0.027072702 0.032403458 0.0005561246 0.025080843 0.019302122 0.067003936 -0.124187306 -0.012767487 -0.020438122 -0.1723455 0.10581092 0.0029324628 0.02404214 0.022415623 0.06353304 -0.19246198 0.100190945 -0.0249486 -0.06958963 0.13775788 0.064219646 -0.21691176 -0.10673965 -0.19839863 0.026600625 0.10400378 -0.02321407 0.12813942 -0.12972924 -0.057334412 0.0730295 -0.12725395 -0.17504676 0.18819982 -0.00067898305 0.22890916 0.06736175 0.017950369 0.06245126 0.038427774 -0.11683587 0.025547596 -0.12892272 0.020484092 0.15367566 -0.06039445 -0.04674025 0.08622071 -0.065710224 -0.051313456 0.0062404457 -0.018111667 -0.0872562 -0.11643096 0.11596392 0.15531337 0.07403247 -0.16791981 -0.09089226 -0.0999613 -0.013182766 -0.09811519 0.06443696 -0.107683524 -0.08782053 0.02030402 -0.125468 0.18576989 0.20193084 -0.1682429 0.05247663 -0.017279567 -0.044134483 0.14454076 -0.10123146 -0.13037083 -0.060177736 0.10462182 0.04957404 -0.14564823 -0.052257124 0.014532187 -0.04764692 -0.0014962573 -0.030779837 0.006719387 -0.039394863 -0.06344929 -0.14464656 0.104276136 -0.027856741 0.022779094 -0.054116946 -0.050132543 -0.19410628
pretrained 0.14320858 0.08629453 0.020831158 0.053036578 -0.019537974 0.033462074 -0.060310587 -0.09964652 -0.05074246 -0.06644532 -0.04080341 0.11800099 -0.030511372 -0.036823116 0.13848896 -0.099792026 -0.044450045 -0.006578665 0.06818416 -0.14668971 -0.013448527 0.038251728 -0.06512327 -0.11609051 -0.045722276 -0.12008794 -0.14059813 0.034432877 0.066281565 -0.10308162 0.097332604 -0.045814835 -0.13898003 -0.26199582 -0.080436714 -0.091497 -0.10410484 0.027876955 0.013294534 -0.18001162 -0.045521162 0.13233067 -0.088335544 -0.078666545 0.070872545 -0.054020368 0.13067067 -0.1646834 0.012637083 0.026299315 0.034943193 -0.027432442 0.06104056 -0.049952455 0.04847107 -0.07928717 0.08929259 0.008516597 -0.04993605 -0.09214794 0.07335604 0.095051296 -0.043525875 -0.09539271 0.09837035 0.10634978 0.15614726 -0.057997994 0.061830863 -0.0485862 0.009107248 -0.12394819 -0.031254347 0.22917795 0.07527552 -0.1617743 0.10861157 -0.017478932 -0.034397963 0.10735237 0.035483725 -0.051036377 0.043142114 0.014409965 -0.09451273 0.045863524 0.1565604 -0.015665483 -0.10217726 -0.0025081495 -0.09776495 0.18513675 0.13817005 -0.12883669 0.10185507 -0.18893029 -0.09163729 0.045298506 0.009015795 -0.029740045 0.037246346 -0.04696722 -0.0799942 0.08622272 -0.006092066 -0.075729445 -0.023095433 0.086404406 -0.059252642 0.05582184 0.11822616 0.12950715 0.047811054 -0.011431277 -0.10892164 0.058084734 0.08225988 0.12013414 0.118677974 0.12167292 -0.14116862 0.014440127 -0.07638571 0.06511207 0.09407111 0.08646345 0.062305655 -0.044343654 0.031108018 0.023297146 -0.117077835 0.10513041 0.0038906196 -0.07740027 0.07524416 -0.03699976 -0.019881057 -0.13677526 0.01627919 0.034365132 -0.008029174 0.07440434 -0.0408271 -0.015509183 0.0056095542 0.0044729016 0.020818917 0.09993298 0.104991935 -0.08833069 0.04554248 -0.05558769 0.03796127 0.121018454 0.017582182 0.08875831 0.01486475 -0.160568 -0.03359406 0.116103224 0.01170771 0.07570541 0.05595701 0.027322888 -0.048995126 0.036773916 -0.028356802 0.007010525 0.01245547 -0.036718678 0.021767566 -0.052537166 -0.027717145 -0.04315333 0.036920447 0.04693161 0.03628894 -0.005189876 0.05297701 -0.015537678 -0.054195866 -0.113557614 0.044215914 0.011103648 0.008889422 0.032955967 0.025270777 0.009747741 -0.1984626 -0.0925606 0.023085553 -0.011250621 -0.00839338 0.007287172 0.13671066 -0.03678106 0.017693277 -0.014037749 0.0603621 -0.106862314
convolutional -0.044515554 -0.10871619 -0.1038904 -0.03897786 0.005620878 -0.061933335 -0.13328913 0.023389861 0.02410655 0.046499915 -0.08792222 0.11891803 0.049312137 0.07993899 0.0029975106 0.029576708 -0.12063175 -0.06459912 -0.15310794 0.008140363 -0.018492756 -0.12986737 -0.18154274 0.06545963 0.03135618 -0.007935643 -0.052882805 -0.06752775 -0.12512533 -0.07772576 0.09706393 0.005244063 0.03838806 0.09247796 -0.040875047 -0.1003259 0.14935337 -0.048638854 0.08384378 0.0075105145 -0.07881818 -0.16965555 0.022180647 0.063466124 -0.08392163 -0.022859978 0.118540764 0.032451216 0.0040779063 0.012126336 -0.11762942 0.028887715 -0.13457513 0.040603034 0.09763223 0.12146895 0.061441503 -0.036755823 -0.010829048 0.11066929 -0.044186402 -0.08392204 -0.01734191 -0.0027598813 0.014202339 -0.110075176 -0.07487593 -0.025094876 0.058875367 -0.010973917 -0.008656802 0.10418422 0.12764946 -0.10855134 0.038685687 0.00010873482 -0.09216328 -0.03208244 0.083767936 -0.08358866 0.09664727 0.07285086 0.00991628 -0.05580829 -0.060450573 0.09650556 -0.009045137 0.071347125 0.11917673 0.08249196 0.087091684 -0.01939705 0.01754555 0.1050576 -0.13700455 0.02716798 0.14511359 -0.050429348 -0.08980156 0.060632017 -0.055891354 0.06596869 0.16417672 -0.036470972 0.055926323 -0.022363687 -0.047974583 -0.08536501 0.09043265 -0.09746641 -0.16776508 -0.05940202 -0.08842557 -0.032030832 -0.02853685 -0.0047193496 -0.10360482 0.04831646 0.10086906 0.025267672 -0.04987399 0.118319 -0.038108718 -0.02900507 0.064271025 -0.04945744 0.026220066 0.04352465 0.15000471 -0.13061191 -0.03726904 -0.020882217 -0.05992971 0.04352873 0.1136747 -0.075085185 -0.02929533 0.07373335 -0.027515728 -0.021907216 -0.033438746 -0.11254107 -0.043498114 -0.049428426 -0.13115557 0.018499097 0.023753926 0.1354794 -0.046479695 -0.10453777 0.02260926 0.11375054 0.098632686 -0.13830891 0.099877425 -0.053608403 0.021610796 0.08751548 -0.062248364 0.05377378 0.073322736 0.13864246 0.09830575 0.13513824 -0.028852962 0.0015629353 0.11074645 0.069378175 0.106717154 0.075066306 -0.02433827 0.06686892 0.097650826 0.08198343 0.031657342 -0.08505942 -0.048048146 0.01098113 0.1310826 0.016821899 -0.103662565 -0.019927617 0.13052514 0.01920251 0.05788045 0.004354506 0.012724274 -0.13371849 -0.002966118 -0.043443207 -0.046790134 0.020789139 0.07620212 0.052015092 -0.06308904 -0.1687684 -0.0052144784 -0.00074134115 -0.014569533 -0.09051627
information 0.08155191 0.06394429 0.0327014 -0.10189421 -0.040690854 -0.012087091 0.018526481 0.04039349 -0.17016396 -0.01430684 0.03252432 0.15999976 0.03069659 0.035537794 0.06217304 -0.121803135 -0.1284058 0.07280423 0.13202904 -0.11529232 -0.0073600053 0.05896053 0.0017928567 -0.124510616 -0.06710938 -0.012596652 -0.09983936 -0.0057424195 -0.00894824 0.13714913 -0.011875185 0.12350598 0.009584437 -0.06970594 0.017321672 -0.0026376317 -0.16171528 0.17712973 -0.018703014 0.01559811 -0.15058827 0.012523857 -0.108755864 0.08554087 -0.1175752 0.07717568 -0.044922855 -0.088406205 -0.042497907 0.012512943 -0.08258967 0.011807792 0.12099201 0.030068865 0.12709922 0.052317012 0.16134557 0.12148193 -0.028484818 -0.03298095 -0.10475843 0.089395404 -0.048763044 0.10209211 0.03551012 0.09620015 0.057875913 -0.0014778934 -0.13725525 0.0013436388 0.035316285 0.117606394 -0.017507944 0.08346342 0.066663936 -0.11973967 0.15425745 -0.054498006 0.034764655 0.07219617 -0.10566076 -0.03833493 -0.16136815 0.056496684 -0.013307745 -0.08478592 0.11629491 -0.04043 -0.014403359 -0.014519635 0.040886693 0.0845048 -0.035459794 -0.064864784 0.006161472 -0.017306224 0.08759987 -0.04582229 -0.007941505 0.07484285 0.111398 0.06060597 0.049055748 0.098629385 -0.0037639285 0.0784392 -0.018602915 0.015921907 0.0043603983 -0.08414458 0.19509476 -0.0023205536 -0.029160826 -0.0009108363 -0.023681153 0.10023759 0.087724745 -0.042847525 0.0068798475 0.01542672 -0.07043232 -0.076626055 -0.00914433 0.050132945 0.05267323 0.05351166 0.02418621 -0.072974354 -0.07785395 0.08806704 0.048205953 0.027316015 0.06339202 -0.096831 0.043520343 -0.022251531 0.022727875 -0.01692964 0.096189305 0.07374551 -0.13538991 0.18313624 -0.051168256 0.031530827 0.11455613 -0.08183518 -0.070782326 0.008723659 0.04103358 0.070932254 0.13673322 -0.03508054 -0.08710032 0.0712003 0.010834897 0.10497894 0.02889341 -0.15535578 0.0065804627 0.009912102 -0.03298696 0.051957402 -0.058032412 0.049194034 -0.0047775544 -0.06319766 -0.040356766 -0.012349475 0.003065481 -0.0463514 -0.061184134 0.08564302 -0.027308006 -0.032242473 0.01310001 0.08230789 -0.03476451 -0.07748766 -0.00046785898 -0.12497039 0.03736575 -0.06843588 0.14758763 0.024589669 0.1549141 -0.09242835 0.025045073 -0.02260396 -0.03789848 0.029554596 0.010780993 -0.15152209 -0.016355751 -0.09801374 0.06089912 -0.026051646 0.042447083 -0.027856646 0.02086711 -0.045772437
ranking -0.018191176 0.048255637 -0.047999937 -0.0027261486 0.070501894 -0.05102686 -0.103457965 -0.024618804 -0.009418254 -0.08188119 -0.047979735 0.073163405 0.088864915 -0.098161794 -0.029435223 -0.061434977 -0.02081808 -0.059339542 0.06555782 -0.110795334 0.081589155 0.020374201 -0.10134972 -0.13927223 0.08338834 -0.038338695 -0.04235535 0.055761382 -0.007256208 -0.022813616 0.037623826 -0.045064446 -0.13606413 -0.15345418 0.13746183 0.0058212145 -0.015852237 0.059921134 0.041068472 -0.13132532 -0.0700477 0.089446716 0.069880456 -0.0036592486 0.034237117 0.03860348 0.02651899 -0.15351866 -0.037277896 0.048480183 0.0033127477 0.12100734 0.0958883 -0.1423982 0.037694804 -0.009549714 0.06267346 0.029720314 -0.03053837 -0.03275175 0.11742377 0.14946443 -0.09496844 0.1055717 0.06626914 0.09935341 0.09021215 -0.0071573104 0.08680778 -0.0414002 0.1312421 0.045544304 -0.021047652 0.058203235 0.011971834 -0.067428164 0.07766145 0.055935398 -0.03833511 0.0818519 -0.09896268 -0.04239995 0.024895174 0.04994739 -0.0051758983 0.07608214 0.11356691 0.054712255 -0.03738208 0.08302213 -0.061848942 0.06574488 0.09671506 -0.07698595 0.050214432 -0.09630237 -0.026278997 0.044967193 0.012293126 0.07412955 0.095948525 -0.038764954 -0.08199274 0.11615576 -0.10796725 -0.115647644 -0.0113314865 0.12884499 0.06799151 -0.055035878 0.043730434 0.0435891 -0.041026916 -0.12353956 -0.07651456 -0.1191444 0.05510152 -0.007516959 -0.0358413 -0.036318008 -0.14129692 0.088134676 0.003264617 -0.07850295 -0.023314128 0.0046944967 -0.10095376 -0.05928597 -0.041362833 0.037172318 -0.0108939065 0.043437093 -0.08614973 -0.05540093 0.012831412 0.041731276 0.015928563 0.04935916 0.119612396 0.039944645 -0.020116445 0.0021763602 -0.02911265 5.6751305e-05 0.04329153 -0.06999296 0.08003702 0.016459828 0.09702954 0.083484665 -0.06594559 0.01932728 -0.02736095 0.0020595286 0.010188072 0.09466223 -0.07776562 0.011132343 -0.03384158 0.10549277 -0.11255398 0.04964011 -0.103955805 0.0035636488 -0.13124967 -0.12925859 -0.085647106 -0.037773807 0.07481018 0.0075142905 -0.08454285 -0.08903077 0.0020466014 -0.054840073 -0.085139245 0.11121676 0.10896572 -0.015795441 -0.040542766 -0.14551081 -0.06300753 -0.10592539 0.19679824 0.035238393 0.12727311 -0.13051446 -0.08968564 -0.057346463 -0.090766855 -0.023538912 -0.10623415 -0.15894015 -0.016619602 -0.05179584 0.15521558 -0.07281483 0.05973527 -0.031800434 0.05786726 -0.0814036
training -0.083726905 -0.036042042 -0.07896169 0.08420332 -0.014775348 -0.011629934 0.07982955 0.117794886 -0.050475568 0.0034659584 0.009082046 -0.072813235 0.14140597 -0.01773135 0.114268795 0.0317517 0.16455992 0.110439196 -0.044835832 0.054439235 -0.007143402 -0.006699749 0.014818362 0.03776315 0.0007338111 0.06796826 -0.016988788 0.013563406 0.117913134 0.0034283826 -0.12201361 0.0030097067 0.018784424 0.11123776 -0.11492414 -0.098454945 0.019810507 -0.12341136 0.008897244 0.118078776 0.08555348 -0.01127572 -0.08579381 0.04288265 0.014070166 -0.048558086 0.018049253 0.1010677 0.030996462 -0.020057973 -0.020015355 -0.024559166 -0.09833875 -0.034432225 -0.0005528128 -0.0821075 -0.061751947 0.022237983 -0.037980594 -0.13110213 -0.06454988 0.050941564 -0.034267392 -0.029901901 -0.089565106 -0.029666115 -0.016742313 0.049878024 0.057885595 0.006361527 -0.15729782 0.0073214816 0.0150124915 0.012057606 -0.06580691 0.035519674 -0.008358375 0.095753364 -0.040534694 -0.026032414 -0.035476882 0.012921047 -0.13286535 -0.1317086 0.07966495 0.071573615 -0.011812793 -0.23154692 0.12116188 -0.010241861 -0.056857314 0.04038912 -0.030995803 0.11257488 -0.0002726838 -0.02647498 0.051608246 -0.11652732 0.021654911 0.09521094 -0.05590601 0.07464791 -0.1618224 0.122173645 0.034266565 0.06389823 -0.00973421 0.039433148 0.059076093 -0.008430826 -0.0816959 0.100778 0.07242296 -0.058939222 -0.0020452205 0.06408669 -0.05069165 -0.012441021 0.081439 0.051111445 0.0912674 -0.023058917 0.11357167 0.15087067 0.09054471 -0.004794229 0.053136993 -0.06359554 0.04829029 -0.0575802 0.05588593 -0.10496062 0.0121878795 0.036791954 -0.044662528 0.11425262 0.11185465 -0.101232395 0.013030192 -0.13193648 -0.081545964 0.1289459 0.006204509 -0.023710506 0.043084312 0.0029184811 -0.05446874 -0.15165213 0.0395826 0.03816275 -0.025407175 0.181976 -0.09816317 0.08890222 0.06469565 -0.062005166 0.23205793 -0.07229119 0.10505652 -0.10268632 0.06923386 -0.09251016 0.20696492 -0.10418619 0.13400066 0.0033514865 0.044141386 0.08898118 0.015773077 -0.023855755 0.021557396 0.043916013 -0.12897395 -0.070529915 -0.0006780394 -0.026380822 0.0010222006 0.09348534 -0.12008191 -0.0007563373 0.015698178 0.03577794 0.0018811838 -0.07742903 0.065357365 -0.11033854 -0.08279854 -0.02566655 -0.016921863 0.05496391 0.15877739 0.06782362 0.109221295 -0.004983605 -0.043523714 -0.020243507 -0.101858795 -0.10917344 0.046164256 0.10160925
representations 0.055171736 0.08925621 -0.029404808 0.0060046436 0.1101838 0.07980077 0.03309506 -0.035205662 0.05415194 -0.038931895 -0.03258113 0.07447467 0.012703271 -0.018705688 0.043208692 -0.05468383 -0.014814343 -0.05187593 0.09841113 -0.04526838 -0.022117814 0.016555876 0.0114702275 -0.077949755 0.03324353 0.07162441 -0.08601283 -0.020008111 0.1171349 0.056630775 0.04683938 -0.023991654 -0.10556067 -0.1435177 -0.02469299 -0.04856797 -0.12904592 0.025462966 0.0382494 -0.0149121545 0.059559483 0.1427195 0.021361679 0.030893568 0.012740618 0.03270549 0.0052493378 -0.16284007 0.038179647 0.055819105 -0.06245023 -0.053235885 0.05568334 -0.06665309 0.02838151 -0.015981171 0.14828469 0.033222422 0.05115526 0.040827494 -0.015254326 0.06738602 -0.07547244 -0.080863714 0.006998118 0.089767404 0.1744945 0.05406176 0.060583595 -0.0637199 -0.031676635 -0.03522646 -0.013846556 0.17812324 -0.038491525 -0.11961924 0.15327056 -0.07857723 -0.15384533 0.023341117 -0.030777516 -0.076041944 0.10381983 0.0074867215 -0.11395249 0.089848734 0.13313091 0.025764188 0.028414607 -0.045656476 -0.031009318 0.02145464 0.17800404 -0.059758216 0.06340562 -0.17198843 -0.024982993 0.058866113 -0.023613928 0.022901976 0.030117676 -0.05722645 -0.005863901 0.062242787 -0.04015135 -0.055122916 0.055261325 -0.06093102 0.054822806 0.04648151 0.013581926 -0.045632206 -0.011471098 -0.024086967 -0.010806153 0.045339227 0.041393537 0.03777866 0.092791624 0.06334122 -0.08905261 0.10959417 -0.031731933 -8.438667e-05 0.03479404 0.12643962 -0.028709304 0.043757513 -0.110178635 -0.012782201 -0.09038172 -0.02797414 -0.03807796 -0.13012195 -0.0019273497 0.021844205 0.021499678 -0.05588679 -0.07451616 0.041380994 0.09914175 -0.019791808 -0.077087216 -0.045943584 0.07633963 -0.02792402 0.034441732 0.05039312 0.05321756 -0.036383033 0.010239887 -0.037711494 0.013348327 0.028664194 -0.054821324 0.043643814 -0.09148304 -0.09396685 -0.038126707 0.0881181 -0.009222515 -0.066950426 0.053307895 0.0074278386 -0.014205521 -0.0156876 -0.10066845 -0.04857886 -0.02537179 0.038040284 -0.055023193 0.00022622943 0.051997483 0.04386223 -0.13708688 -0.05699857 -0.018578243 0.022789171 0.084367886 -0.011707269 0.02326477 -0.12207569 0.16762947 -0.05025016 0.034601454 -0.08398732 0.007326265 0.039530996 -0.070357166 0.055172805 0.036729217 -0.018044725 0.026955724 0.0039018234 0.048738375 0.025753664 0.1588155 0.033413585 -0.032659948 -0.122415714
tasks -0.092516236 0.12973024 0.07094216 0.029189534 -0.015395663 -0.0044520414 0.036258925 0.013400351 -0.095369905 0.05358175 -0.16218804 0.10627667 -0.031066451 0.017302759 0.050431356 0.024895662 -0.11824484 -0.009063847 0.067792706 -0.120742455 0.0028400137 0.13928714 -0.080632664 -0.093237326 -0.009047409 -0.0035169022 -0.048080854 -0.041177012 0.06362135 0.058649823 0.014272183 -0.17187929 -0.120225824 -0.029253405 0.06702671 0.09226851 -0.17115048 0.14842096 -0.014566463 -0.113554485 -0.13581714 0.16717766 0.02335542 -0.050499715 0.02124365 0.040167436 0.106733374 -0.14214359 -0.031752285 0.14771175 -0.14034232 -0.0036345725 0.012564511 0.03608314 -0.10756827 -0.12290745 -0.040564336 -0.102151245 -0.09603879 0.01947873 0.003694893 0.17265706 0.019689282 -0.05417493 0.1451371 -0.08043109 0.12860787 -0.08459588 -0.048718765 0.009270143 0.14624608 0.018062497 0.09445919 0.21762866 -0.026632512 -0.14415628 0.10924414 0.10893485 -0.15703037 0.045555297 0.050229322 -0.08849442 0.080850415 0.21577026 0.05762259 -0.087123215 0.054229457 0.16336147 0.01944796 0.03733213 -0.08563006 -0.087675 0.1252464 -0.18706001 0.25930417 -0.19216649 0.06642003 -0.056855634 -0.040584262 -0.017166302 0.06292429 -0.16274422 -0.008019405 -0.047620554 -0.15319829 -0.0062467656 -0.122295834 0.025721366 0.04394269 -0.0013276304 0.21356677 -0.04770667 0.04314649 0.0016211547 -0.044946715 0.023634434 0.101785965 0.026893431 -0.13786395 0.06198272 -0.09739279 -0.043560166 -0.023962563 0.007946735 0.08937845 0.06469844 -0.1771066 0.005447142 -0.035796724 0.13977538 -0.028525785 0.046148036 -0.0070356885 -0.08856825 -0.015506488 -0.015173826 -0.07032179 -0.14261356 0.10799937 0.015671458 0.03749448 -0.05056976 0.004074826 -0.09842708 -0.1040262 -0.02181407 -0.027306478 -0.049890578 -0.011519358 0.13652901 0.056616217 -0.017712211 -0.003951553 0.037097543 -0.06922968 0.008972287 0.06622152 -0.16516037 -0.024473745 0.16206872 -0.036180615 0.0076843947 -0.1381377 -0.025225136 -0.13264328 -0.10895805 -0.08029927 0.102111556 0.06396683 0.009487865 0.05585756 -0.056563552 0.13355735 0.11856053 -0.060172565 0.010702671 0.038214717 -0.017999537 0.071183726 -0.09415242 -0.033202887 0.046952475 0.008024873 -0.02204062 -0.06283052 0.05377949 -0.022400891 0.095396616 0.07327575 -0.1570477 -0.07308071 0.016614117 0.005804512 -0.010815352 0.15938224 0.04666056 0.01556579 0.021101028 -0.122656986 -0.15835851
nlp 0.023804681 0.21467346 -0.03494152 0.109729216 0.02774116 0.07581195 -0.062438644 -0.12043652 -0.006758185 0.01245161 -0.18773432 0.12745818 0.052573066 0.072741926 0.10131323 -0.09475996 -0.11444496 -0.009395309 0.19860776 -0.019026922 0.08867492 0.078101285 -0.10047099 -0.10502737 0.08937666 -0.037935756 -0.15685858 -0.020433156 -0.04523363 0.014651805 -0.046709903 0.069325626 -0.12880172 -0.06324999 0.045577336 0.042547088 -0.086309835 0.11702618 -0.06393717 -0.20091946 0.007745761 0.15082961 -0.024319058 0.005012234 0.022090519 -0.01607235 0.021830374 -0.16354084 -0.032741208 -0.0039847493 -0.07541319 0.1160746 -0.06631735 -0.087289385 0.08229322 -0.0692737 0.11423244 -0.061283037 0.03450441 0.01173456 0.07949174 0.00975248 0.012836349 -0.044993848 0.04704293 -0.0389359 0.20186819 0.033321124 -0.028466828 -0.0038165136 0.04859155 0.03986955 0.00016137003 0.16227652 0.046312302 -0.028671205 0.079974145 -0.018720813 -0.049044076 -0.027301822 0.02414324 -0.07420598 -0.09574367 -0.036725555 -0.0863206 0.020269783 0.068694234 0.0056560114 -0.09198284 0.11465053 -0.076629736 -0.027853843 0.1380221 -0.15781413 0.19584553 -0.14907205 -0.0032168408 -0.003330376 -0.0058430014 0.023423329 0.010097967 -0.03557664 0.12107079 0.013584707 -0.16009273 0.010911433 0.017599592 0.01904287 -0.04960317 0.05468785 0.15335104 0.018838132 -0.07035476 -0.0022491026 -0.05934393 0.05659014 0.0482248 0.12657294 -0.016438434 0.092898004 -0.13183455 -0.06775521 0.057570785 0.10312071 0.022942446 0.002343776 -0.0681993 0.04836705 0.00059867627 -0.014303501 -0.023420108 0.022184629 -0.044513684 -0.05306209 -0.015758779 0.10319933 0.026458997 -0.08765019 0.029057516 -0.012039838 -0.016177677 0.04019472 0.043492764 0.02436073 -0.0067615407 -0.09866109 -0.054591488 0.092153326 0.008897178 0.15940252 0.011043532 -0.036052827 0.054312296 0.012709921 0.0068697967 0.023644282 -0.08271559 -0.06279903 -0.14858702 0.22912702 0.02366139 0.11955014 0.0097736055 0.021103125 -0.00352918 0.043037027 -0.1439579 -0.0023612087 0.045658957 0.045979608 0.09807521 -0.06595394 0.06927384 -0.024096036 -0.10283127 0.06858213 -0.07620308 0.033445314 -0.04216001 -0.14580297 -0.08179845 -0.13104448 0.0649348 0.029892676 0.058320366 0.02234757 -0.01003581 0.023101382 -0.041454744 0.017789237 -0.09066426 -0.17357956 0.044532925 -0.049135 0.06975472 0.0014220534 0.093210675 0.074497126 -0.09136478 -0.1966882
video 0.062983885 0.015856609 0.05195707 -0.09899466 0.018804403 0.013802618 -0.036489435 0.018764747 -0.04799147 -0.062252946 0.12592916 -0.02847076 0.098894 -0.06545385 -0.030355122 -0.13676162 -0.02573254 6.8314606e-05 -0.118653074 0.042391475 0.08518058 0.060558368 -0.042518772 -0.037215192 0.06668304 -0.11879924 0.14471199 -0.009770995 0.07592803 -0.050809383 -0.08720522 -0.100873254 0.017420493 0.04791788 -0.09772286 -0.030809999 -0.0050548036 0.04281379 -0.056869574 0.020629745 0.07389049 -0.012878802 0.08545862 -0.09193659 -0.0915113 -0.049358364 -0.058027416 -0.009505786 0.10089427 0.035966065 0.06503525 -0.093619876 -0.04889028 -0.07152882 -0.09228796 0.0073787807 -0.005240431 0.021840937 0.0073319003 0.022911647 -0.019728536 -0.0066280956 0.07686609 -0.042060662 -0.14599669 -0.0089898445 -0.11621398 0.04392254 0.0099968435 0.09671205 -0.01990399 0.030088177 -0.038035326 0.02952103 -0.07405176 -0.06320886 -0.10039652 -0.010165427 0.05130299 0.1108392 0.042673964 0.10216215 -0.063541465 -0.14076976 0.18353093 -0.02411637 -0.04994346 -0.041966397 0.10308156 0.1378829 0.040435188 -0.001167954 -0.084502585 0.037456766 -0.117043756 -0.021094121 0.026144989 0.017593876 0.031020999 0.04569294 -0.010514051 -0.042372853 0.05557646 -0.0526538 -0.09208718 -0.08499974 0.015521797 -0.078236446 0.05706007 0.003688206 -0.14661267 -0.0078367 0.06791368 0.07986031 0.061407644 0.052810013 -0.092072085 0.10533805 0.058300983 0.07245129 0.050995544 0.0888321 0.026974594 -0.05391967 0.013770963 -0.121003084 -0.011822832 0.08404346 0.14485699 0.061305664 0.048914067 -0.048023075 0.025316618 0.11733359 0.07670724 -0.047855854 0.029656367 0.05662789 -0.07590303 -0.05198962 -0.08997594 -0.09513299 -0.03721453 0.039913468 -0.0412297 0.026758214 -0.038150985 -0.06232066 -0.09671333 -0.069597125 0.097487226 0.034610096 -0.018546028 -0.03430449 0.11602674 0.0016876025 0.006921961 0.04885852 -0.0036274847 -0.11375999 0.031898934 -0.14154619 0.038619515 -0.11557414 0.122372866 -0.05766425 -0.04501574 0.022693127 -0.010091426 0.12034148 -0.045186102 0.0051103253 0.020710584 -0.004640766 0.13620168 -0.015155394 0.07253191 -0.040011868 -0.0062409625 0.040378295 -0.015770141 0.087437674 0.052400704 -0.0480621 -0.017226405 0.015490732 0.063339435 0.025239741 -0.06434926 0.13027939 0.06388715 0.12010412 0.028473869 -0.036881752 0.015995134 0.018587057 -0.051002398 0.034613576 0.009898615 -0.012527705
modeling -0.09551662 0.13482016 0.023758998 -0.06334077 -0.00049278187 -0.01011078 0.041628476 0.117516875 -0.09957491 0.092667624 -0.13499196 0.09589518 0.0925275 -0.001948796 -0.035127617 -0.011348162 -0.07985868 -0.023310052 0.14082833 -0.16153793 -0.07541737 0.0434508 -0.040422987 0.008874015 0.053076193 -0.08257082 -0.012165947 -0.011515273 -0.005396289 -0.08039102 0.03200248 -0.025582995 -0.12170655 -0.08079138 -0.059479404 0.112019196 -0.043582283 0.19805247 -0.056842063 -0.0572501 0.020267343 0.03620374 0.009745936 0.009993231 -0.07942246 0.04558525 0.04857123 -0.045355134 -0.109412864 0.018974915 -0.08913829 -0.03854831 -0.029915519 -0.08964569 0.027467158 0.033372104 0.07280048 -0.06228992 -0.09562103 0.055476226 0.09374835 0.14670703 0.011164596 -0.017773401 0.0039362833 0.030104207 0.11177701 -0.014597626 0.047853965 0.02609145 0.012668309 0.032197233 0.016343683 0.11991436 0.066451296 -0.10904518 -0.0062510255 -0.034771614 -0.024663799 0.00018305192 0.068713486 -0.12915497 -0.06369595 0.006917133 -0.06716678 0.039894562 -0.044918224 0.10088552 0.08845446 0.043694988 0.024766063 0.067510515 0.07306591 -0.15535419 0.09705199 -0.027308932 0.039522737 0.017528256 -0.14136316 0.07681614 0.049399503 0.0071846778 0.010029933 0.014039972 -0.1269251 -0.06864573 -0.13574222 -0.027329804 0.04604447 -0.034912955 0.14283511 -0.14806573 -0.021722363 0.06923418 -0.052017476 -0.05113595 -0.04597576 0.06370779 -0.08850059 -0.0030729396 0.000884729 0.02500114 -0.0360847 -0.07789767 0.09613011 0.13838498 -0.08985084 0.029791407 -0.13240235 0.08995188 -0.06783496 -0.037379507 0.03026663 -0.0039488217 -0.027335154 0.0008608189 -0.028943459 -0.08514631 0.14121787 -0.12270912 0.050926853 0.119397305 0.014594778 -0.04028094 0.052807357 -0.039064616 0.04809908 -0.17271927 -0.016679808 -0.008217597 0.05571073 0.04213723 0.0737781 0.060204264 -0.001228503 0.04517343 -0.076656975 -0.12791333 -0.16757171 0.0009927496 0.026559737 -0.08166985 -0.016005876 0.0053710397 -0.1448589 -0.014197142 -0.08072897 -0.00053725904 0.03826658 -0.06662969 0.06599011 0.047938667 0.13501939 -0.043961726 -0.042168442 -0.019417627 -0.022338262 0.032556392 0.030610317 -0.06626201 -0.14995784 -0.0019138469 0.05469583 0.08488614 0.059204448 -0.101173036 0.035671636 -0.010854026 0.11081675 -0.12357989 -0.0070413244 -0.118552074 -0.08826806 -0.020310467 0.07366382 0.07766779 0.14487971 -0.017129537 0.006808256 -0.17040637
stateoftheart 0.089970216 -0.0016273798 -0.08232591 0.019311236 -0.02280752 -0.051430624 -0.042711012 -0.049060665 -0.09159224 0.08865212 0.078943916 0.13901965 -0.11155449 0.114205085 -0.022166356 0.109643124 0.04320629 0.056703508 -0.0023426688 0.11610946 -0.1147114 0.02199571 -0.059273846 0.106679395 -0.030602291 0.17579007 -0.025448637 0.14861609 0.08255394 -0.0139468005 0.08124338 0.07716332 0.0040248684 0.081144 0.18063775 -0.039997593 -0.03265682 0.12866893 0.07373566 0.037785787 -0.084798634 0.087968804 0.121707544 0.09412076 0.13103376 0.014256223 0.012832737 0.06555304 -0.051367544 0.0076972772 0.10345589 0.049068354 0.15535483 0.030857844 0.025816213 -0.08397132 -0.016901424 4.3519773e-05 0.14966929 0.0327846 0.035964668 -0.09436924 0.12733194 0.11227779 0.11388484 0.09921089 -0.042498775 0.13633609 0.087781765 -0.13799222 0.12641591 -0.13263077 0.11303172 -0.06949878 -0.10113611 -0.046835642 -0.04249359 0.12076506 0.040549677 -0.105994195 0.036416497 -0.14518175 0.14856097 0.05557844 -0.058605015 0.16434002 0.039577812 0.12856673 -0.027551875 -0.11004058 -0.07258069 0.04039073 -0.06567409 0.078960866 0.045885835 0.077681206 0.1644842 -0.17616574 -0.013941649 -0.05121516 0.1219254 -0.00764139 0.0437683 0.15853289 -0.07894195 0.09855245 0.15289956 -0.08952809 0.07261853 0.008060682 0.058555678 -0.1716233 -0.025539674 -0.11415541 0.048891544 -0.048352975 0.06836966 -0.123965405 -0.13757215 0.011824635 -0.048526596 -0.05837454 0.13375433 0.0006954246 -0.07627257 0.04545367 0.11339777 -0.1423714 -0.10661244 0.17559662 -0.0057961866 0.073592134 -0.06608389 0.054221064 0.037970815 0.018477488 -0.03234049 0.055756044 0.0685068 -0.015554673 -0.048583962 -0.13159512 0.13593498 0.0036657273 0.041042887 -0.081767745 -0.13377115 0.04236611 0.01189689 -0.1692212 -0.06684436 0.070448704 -0.08471349 -0.042803712 -0.10482972 -0.045052253 0.0514842 -0.0011628453 0.07882194 -0.07099184 -0.13348448 0.020556215 -0.07443333 0.024159351 0.024869762 0.09406764 -0.12356664 -0.042629234 -0.00725786 0.022895616 0.12590039 0.048761155 -0.14194816 -0.102039725 -0.0264148 0.06926061 0.08089202 -0.14031282 0.13570201 -0.0023233 0.039183397 -0.046502907 0.06393781 0.06991722 -0.14598331 -0.084231496 0.11104087 0.14614771 -0.06471012 -0.2010583 -0.08697638 -0.00538632 0.10325205 -0.15143616 0.0963756 0.124306135 -0.06954582 0.09160107 0.04820669 -0.06732121
context -0.043350242 0.0133283045 -0.05946127 0.020017345 0.007820576 -0.04926593 -0.02690567 -0.103617534 0.032892898 -0.007432486 -0.022162182 -0.13087347 -0.07100866 0.046988066 -0.040389802 0.08587353 -0.06837122 -0.047009636 -0.16885905 0.074326865 -0.12488172 -0.08862128 -0.022885986 -1.9046012e-05 -0.025576659 -0.018446999 0.17248285 -0.022921454 0.050313972 0.11616628 -0.10634602 -0.07574126 0.15131636 0.04847981 -0.10069283 0.019048642 0.087274805 0.074509636 0.10519021 0.024937756 0.004707967 0.053382576 0.012728067 0.14455771 0.009512643 -0.020349087 0.07243439 0.018465575 -0.04603455 -0.022025162 0.11216595 0.036619287 0.0090029035 0.07006443 -0.12703027 -0.05380157 -0.045170754 0.07678687 -0.10325819 0.12387601 -0.07272674 -0.094894245 0.05864588 -0.05890112 0.004982342 -0.030123945 -0.004992131 -0.06596457 -0.11256759 -0.07071871 -0.055632487 -0.060743604 0.09211378 -0.0063572293 0.025867768 -0.024148349 -0.16840391 -0.104282275 0.047658287 0.021094639 -0.04080253 -0.049500402 0.13216178 0.02733247 -0.06296324 -0.0014630003 -0.045868907 -0.16329503 -0.047945797 -0.011239766 -0.028216442 0.027186338 -0.083679646 0.066187695 -0.07451554 0.122182235 -0.11952965 -0.13116989 -0.013678406 -0.07079539 -0.05213401 0.08665629 -0.018151065 0.012619556 -0.09421467 0.09947524 0.08530208 0.0022013497 -0.019574974 -0.04168572 -0.09784217 -0.083652444 -0.068835095 0.06571598 0.022362951 -0.03372555 0.019333085 -0.005626177 -0.13206159 -0.02173129 0.045221504 0.007515935 -0.009532316 -0.06941709 -0.043199904 -0.041821584 0.03833252 -0.060990296 0.11907742 0.082815096 0.016789027 0.07044388 -0.058692 0.09071593 0.037704416 -0.12816843 0.11980421 -0.031850986 -0.017446473 -0.080409095 0.009365138 0.017111968 -0.08778053 0.09501375 -0.049485356 -0.021965383 -0.11149223 0.09338391 -0.077221826 0.017053101 0.013779853 0.052166663 -0.07393792 -0.03199898 -0.05872232 -0.16707747 0.027012415 0.08814867 0.019423697 0.014362011 -0.048326414 0.036070794 0.018500078 -0.04460327 0.0046086693 -0.11488079 0.09309107 0.0025671364 0.028900577 0.03208179 0.035625245 -0.0064318506 0.020550434 0.08083535 0.13416341 -0.036434688 0.035512343 -0.0029583664 -0.018582074 0.105054736 0.020307977 0.011285285 -0.030563533 0.08130995 -0.0002490657 0.032048367 0.12130721 -0.13212135 -0.03229008 0.12643102 0.08169054 -0.0053664963 0.01846429 0.08165538 -0.16911744 0.04019662 -0.12163848 0.08188336 0.04342685 0.040371526
